<?xml version="1.0"?>
<opencv_storage>
<cascade>
  <stageType>BOOST</stageType>
  <featureType>HAAR</featureType>
  <height>20</height>
  <width>20</width>
  <stageParams>
    <boostType>GAB</boostType>
    <minHitRate>9.9500000476837158e-01</minHitRate>
    <maxFalseAlarm>5.0000000000000000e-01</maxFalseAlarm>
    <weightTrimRate>9.4999999999999996e-01</weightTrimRate>
    <maxDepth>1</maxDepth>
    <maxWeakCount>100</maxWeakCount></stageParams>
  <featureParams>
    <maxCatCount>0</maxCatCount>
    <featSize>1</featSize>
    <mode>BASIC</mode></featureParams>
  <stageNum>7</stageNum>
  <stages>
    <!-- stage 0 -->
    <_>
      <maxWeakCount>2</maxWeakCount>
      <stageThreshold>-3.1529274582862854e-01</stageThreshold>
      <weakClassifiers>
        <_>
          <internalNodes>
            0 -1 11 4.2392976582050323e-02</internalNodes>
          <leafValues>
            -9.7460317611694336e-01 7.9887002706527710e-01</leafValues></_>
        <_>
          <internalNodes>
            0 -1 26 -1.0440981015563011e-02</internalNodes>
          <leafValues>
            6.5931046009063721e-01 -8.3431732654571533e-01</leafValues></_></weakClassifiers></_>
    <!-- stage 1 -->
    <_>
      <maxWeakCount>4</maxWeakCount>
      <stageThreshold>-1.7314480245113373e-01</stageThreshold>
      <weakClassifiers>
        <_>
          <internalNodes>
            0 -1 14 1.5850685536861420e-02</internalNodes>
          <leafValues>
            -8.9549547433853149e-01 7.0298105478286743e-01</leafValues></_>
        <_>
          <internalNodes>
            0 -1 6 -1.4348842203617096e-02</internalNodes>
          <leafValues>
            8.5119688510894775e-01 -5.5714440345764160e-01</leafValues></_>
        <_>
          <internalNodes>
            0 -1 24 5.4792210459709167e-02</internalNodes>
          <leafValues>
            -8.9072489738464355e-01 5.7864457368850708e-01</leafValues></_>
        <_>
          <internalNodes>
            0 -1 3 1.4168843626976013e-01</internalNodes>
          <leafValues>
            -6.7478960752487183e-01 7.0085048675537109e-01</leafValues></_></weakClassifiers></_>
    <!-- stage 2 -->
    <_>
      <maxWeakCount>4</maxWeakCount>
      <stageThreshold>-5.2999246120452881e-01</stageThreshold>
      <weakClassifiers>
        <_>
          <internalNodes>
            0 -1 4 1.4783879742026329e-02</internalNodes>
          <leafValues>
            -6.9705468416213989e-01 7.6882040500640869e-01</leafValues></_>
        <_>
          <internalNodes>
            0 -1 21 -1.8606532365083694e-02</internalNodes>
          <leafValues>
            6.4309132099151611e-01 -5.6835752725601196e-01</leafValues></_>
        <_>
          <internalNodes>
            0 -1 8 1.0072592645883560e-02</internalNodes>
          <leafValues>
            -8.4016203880310059e-01 4.4159868359565735e-01</leafValues></_>
        <_>
          <internalNodes>
            0 -1 10 1.8465328961610794e-02</internalNodes>
          <leafValues>
            -9.5898848772048950e-01 3.6413294076919556e-01</leafValues></_></weakClassifiers></_>
    <!-- stage 3 -->
    <_>
      <maxWeakCount>5</maxWeakCount>
      <stageThreshold>-6.0012698173522949e-01</stageThreshold>
      <weakClassifiers>
        <_>
          <internalNodes>
            0 -1 5 -3.1655852217227221e-03</internalNodes>
          <leafValues>
            6.6378378868103027e-01 -7.7818179130554199e-01</leafValues></_>
        <_>
          <internalNodes>
            0 -1 7 3.0201796442270279e-02</internalNodes>
          <leafValues>
            -4.6051722764968872e-01 7.8510200977325439e-01</leafValues></_>
        <_>
          <internalNodes>
            0 -1 17 3.1948544085025787e-02</internalNodes>
          <leafValues>
            -5.0721901655197144e-01 7.2505235671997070e-01</leafValues></_>
        <_>
          <internalNodes>
            0 -1 9 1.9494757056236267e-02</internalNodes>
          <leafValues>
            -7.9153686761856079e-01 4.8598036170005798e-01</leafValues></_>
        <_>
          <internalNodes>
            0 -1 27 -1.4606516808271408e-02</internalNodes>
          <leafValues>
            6.9170868396759033e-01 -4.8089945316314697e-01</leafValues></_></weakClassifiers></_>
    <!-- stage 4 -->
    <_>
      <maxWeakCount>5</maxWeakCount>
      <stageThreshold>-4.6061697602272034e-01</stageThreshold>
      <weakClassifiers>
        <_>
          <internalNodes>
            0 -1 20 1.4523632125928998e-04</internalNodes>
          <leafValues>
            6.1491316556930542e-01 -9.1402715444564819e-01</leafValues></_>
        <_>
          <internalNodes>
            0 -1 2 2.1720137447118759e-02</internalNodes>
          <leafValues>
            -5.7715713977813721e-01 6.7815274000167847e-01</leafValues></_>
        <_>
          <internalNodes>
            0 -1 16 7.6547749340534210e-03</internalNodes>
          <leafValues>
            -9.4202131032943726e-01 3.6643674969673157e-01</leafValues></_>
        <_>
          <internalNodes>
            0 -1 13 7.6870787888765335e-03</internalNodes>
          <leafValues>
            -7.8903120756149292e-01 3.6835664510726929e-01</leafValues></_>
        <_>
          <internalNodes>
            0 -1 18 -1.2062246241839603e-04</internalNodes>
          <leafValues>
            -9.3096810579299927e-01 2.9577395319938660e-01</leafValues></_></weakClassifiers></_>
    <!-- stage 5 -->
    <_>
      <maxWeakCount>5</maxWeakCount>
      <stageThreshold>-4.2011907696723938e-01</stageThreshold>
      <weakClassifiers>
        <_>
          <internalNodes>
            0 -1 0 1.7551384866237640e-01</internalNodes>
          <leafValues>
            -7.4087589979171753e-01 6.5118789672851562e-01</leafValues></_>
        <_>
          <internalNodes>
            0 -1 15 1.6092895530164242e-03</internalNodes>
          <leafValues>
            4.0272769331932068e-01 -8.8948810100555420e-01</leafValues></_>
        <_>
          <internalNodes>
            0 -1 22 -3.3796177012845874e-04</internalNodes>
          <leafValues>
            -9.2728543281555176e-01 2.8827187418937683e-01</leafValues></_>
        <_>
          <internalNodes>
            0 -1 1 1.6150576993823051e-02</internalNodes>
          <leafValues>
            -4.9533793330192566e-01 6.1249750852584839e-01</leafValues></_>
        <_>
          <internalNodes>
            0 -1 25 4.0557835018262267e-04</internalNodes>
          <leafValues>
            -9.0203589200973511e-01 3.0947557091712952e-01</leafValues></_></weakClassifiers></_>
    <!-- stage 6 -->
    <_>
      <maxWeakCount>3</maxWeakCount>
      <stageThreshold>-1.9332601130008698e-01</stageThreshold>
      <weakClassifiers>
        <_>
          <internalNodes>
            0 -1 19 -6.8964080128353089e-05</internalNodes>
          <leafValues>
            -9.7611939907073975e-01 5.4576271772384644e-01</leafValues></_>
        <_>
          <internalNodes>
            0 -1 23 2.2113535669632256e-04</internalNodes>
          <leafValues>
            3.7131687998771667e-01 -9.0403544902801514e-01</leafValues></_>
        <_>
          <internalNodes>
            0 -1 12 1.9509855192154646e-03</internalNodes>
          <leafValues>
            -6.7939823865890503e-01 4.1147652268409729e-01</leafValues></_></weakClassifiers></_></stages>
  <features>
    <_>
      <rects>
        <_>
          0 3 16 15 -1.</_>
        <_>
          8 3 8 15 2.</_></rects>
      <tilted>0</tilted></_>
    <_>
      <rects>
        <_>
          0 4 2 12 -1.</_>
        <_>
          1 4 1 12 2.</_></rects>
      <tilted>0</tilted></_>
    <_>
      <rects>
        <_>
          0 7 4 6 -1.</_>
        <_>
          2 7 2 6 2.</_></rects>
      <tilted>0</tilted></_>
    <_>
      <rects>
        <_>
          1 0 18 10 -1.</_>
        <_>
          1 5 18 5 2.</_></rects>
      <tilted>0</tilted></_>
    <_>
      <rects>
        <_>
          1 12 8 6 -1.</_>
        <_>
          1 12 4 3 2.</_>
        <_>
          5 15 4 3 2.</_></rects>
      <tilted>0</tilted></_>
    <_>
      <rects>
        <_>
          4 9 4 2 -1.</_>
        <_>
          6 9 2 2 2.</_></rects>
      <tilted>0</tilted></_>
    <_>
      <rects>
        <_>
          4 18 12 2 -1.</_>
        <_>
          4 19 12 1 2.</_></rects>
      <tilted>0</tilted></_>
    <_>
      <rects>
        <_>
          5 0 10 4 -1.</_>
        <_>
          5 2 10 2 2.</_></rects>
      <tilted>0</tilted></_>
    <_>
      <rects>
        <_>
          5 3 4 9 -1.</_>
        <_>
          5 6 4 3 3.</_></rects>
      <tilted>0</tilted></_>
    <_>
      <rects>
        <_>
          5 3 6 9 -1.</_>
        <_>
          5 6 6 3 3.</_></rects>
      <tilted>0</tilted></_>
    <_>
      <rects>
        <_>
          5 6 12 3 -1.</_>
        <_>
          11 6 6 3 2.</_></rects>
      <tilted>0</tilted></_>
    <_>
      <rects>
        <_>
          6 9 10 5 -1.</_>
        <_>
          11 9 5 5 2.</_></rects>
      <tilted>0</tilted></_>
    <_>
      <rects>
        <_>
          6 10 6 1 -1.</_>
        <_>
          8 10 2 1 3.</_></rects>
      <tilted>0</tilted></_>
    <_>
      <rects>
        <_>
          6 13 4 6 -1.</_>
        <_>
          6 15 4 2 3.</_></rects>
      <tilted>0</tilted></_>
    <_>
      <rects>
        <_>
          7 4 4 10 -1.</_>
        <_>
          9 4 2 10 2.</_></rects>
      <tilted>0</tilted></_>
    <_>
      <rects>
        <_>
          8 7 4 3 -1.</_>
        <_>
          8 8 4 1 3.</_></rects>
      <tilted>0</tilted></_>
    <_>
      <rects>
        <_>
          8 10 4 8 -1.</_>
        <_>
          10 10 2 8 2.</_></rects>
      <tilted>0</tilted></_>
    <_>
      <rects>
        <_>
          8 14 7 6 -1.</_>
        <_>
          8 16 7 2 3.</_></rects>
      <tilted>0</tilted></_>
    <_>
      <rects>
        <_>
          9 7 1 2 -1.</_>
        <_>
          9 8 1 1 2.</_></rects>
      <tilted>0</tilted></_>
    <_>
      <rects>
        <_>
          9 8 4 1 -1.</_>
        <_>
          11 8 2 1 2.</_></rects>
      <tilted>0</tilted></_>
    <_>
      <rects>
        <_>
          9 9 6 2 -1.</_>
        <_>
          11 9 2 2 3.</_></rects>
      <tilted>0</tilted></_>
    <_>
      <rects>
        <_>
          9 16 7 4 -1.</_>
        <_>
          9 18 7 2 2.</_></rects>
      <tilted>0</tilted></_>
    <_>
      <rects>
        <_>
          10 7 3 3 -1.</_>
        <_>
          10 8 3 1 3.</_></rects>
      <tilted>0</tilted></_>
    <_>
      <rects>
        <_>
          10 8 2 1 -1.</_>
        <_>
          11 8 1 1 2.</_></rects>
      <tilted>0</tilted></_>
    <_>
      <rects>
        <_>
          11 4 9 10 -1.</_>
        <_>
          14 4 3 10 3.</_></rects>
      <tilted>0</tilted></_>
    <_>
      <rects>
        <_>
          13 8 2 4 -1.</_>
        <_>
          14 8 1 4 2.</_></rects>
      <tilted>0</tilted></_>
    <_>
      <rects>
        <_>
          16 8 4 4 -1.</_>
        <_>
          18 8 2 4 2.</_></rects>
      <tilted>0</tilted></_>
    <_>
      <rects>
        <_>
          18 8 2 7 -1.</_>
        <_>
          19 8 1 7 2.</_></rects>
      <tilted>0</tilted></_></features></cascade>
</opencv_storage>
