<?xml version="1.0"?>
<opencv_storage>
<cascade>
  <stageType>BOOST</stageType>
  <featureType>HAAR</featureType>
  <height>20</height>
  <width>20</width>
  <stageParams>
    <boostType>GAB</boostType>
    <minHitRate>9.9500000476837158e-01</minHitRate>
    <maxFalseAlarm>5.0000000000000000e-01</maxFalseAlarm>
    <weightTrimRate>9.4999999999999996e-01</weightTrimRate>
    <maxDepth>1</maxDepth>
    <maxWeakCount>100</maxWeakCount></stageParams>
  <featureParams>
    <maxCatCount>0</maxCatCount>
    <featSize>1</featSize>
    <mode>BASIC</mode></featureParams>
  <stageNum>10</stageNum>
  <stages>
    <!-- stage 0 -->
    <_>
      <maxWeakCount>30</maxWeakCount>
      <stageThreshold>-9.5433539152145386e-01</stageThreshold>
      <weakClassifiers>
        <_>
          <internalNodes>
            0 -1 415 -2.6376196183264256e-03</internalNodes>
          <leafValues>
            6.0873079299926758e-01 1.0047847032546997e-01</leafValues></_>
        <_>
          <internalNodes>
            0 -1 41 -1.0539359645918012e-03</internalNodes>
          <leafValues>
            4.1115474700927734e-01 -1.5299314260482788e-01</leafValues></_>
        <_>
          <internalNodes>
            0 -1 338 2.6530085597187281e-03</internalNodes>
          <leafValues>
            -1.6162049770355225e-01 3.9213344454765320e-01</leafValues></_>
        <_>
          <internalNodes>
            0 -1 340 -1.7200261354446411e-02</internalNodes>
          <leafValues>
            3.7199488282203674e-01 -1.9037218391895294e-01</leafValues></_>
        <_>
          <internalNodes>
            0 -1 558 -6.7551090614870191e-04</internalNodes>
          <leafValues>
            2.7340942621231079e-01 -1.9842126965522766e-01</leafValues></_>
        <_>
          <internalNodes>
            0 -1 437 -2.9245286714285612e-03</internalNodes>
          <leafValues>
            3.9014950394630432e-01 -1.3815331459045410e-01</leafValues></_>
        <_>
          <internalNodes>
            0 -1 163 -3.3889631740748882e-03</internalNodes>
          <leafValues>
            3.0697029829025269e-01 -1.6499030590057373e-01</leafValues></_>
        <_>
          <internalNodes>
            0 -1 226 -2.4391934275627136e-03</internalNodes>
          <leafValues>
            3.5140284895896912e-01 -1.5252572298049927e-01</leafValues></_>
        <_>
          <internalNodes>
            0 -1 313 -1.4363878872245550e-03</internalNodes>
          <leafValues>
            3.7437063455581665e-01 -1.3947308063507080e-01</leafValues></_>
        <_>
          <internalNodes>
            0 -1 321 -7.5186230242252350e-04</internalNodes>
          <leafValues>
            2.3330491781234741e-01 -2.1166791021823883e-01</leafValues></_>
        <_>
          <internalNodes>
            0 -1 448 -3.0625737272202969e-03</internalNodes>
          <leafValues>
            3.8075676560401917e-01 -1.2554448843002319e-01</leafValues></_>
        <_>
          <internalNodes>
            0 -1 103 2.3476169444620609e-03</internalNodes>
          <leafValues>
            -1.2682375311851501e-01 3.9597073197364807e-01</leafValues></_>
        <_>
          <internalNodes>
            0 -1 37 -1.3408691156655550e-03</internalNodes>
          <leafValues>
            3.0731421709060669e-01 -1.4625239372253418e-01</leafValues></_>
        <_>
          <internalNodes>
            0 -1 394 7.9289823770523071e-04</internalNodes>
          <leafValues>
            -1.5872205793857574e-01 2.5238782167434692e-01</leafValues></_>
        <_>
          <internalNodes>
            0 -1 450 -2.1784100681543350e-03</internalNodes>
          <leafValues>
            3.5673356056213379e-01 -1.0669148713350296e-01</leafValues></_>
        <_>
          <internalNodes>
            0 -1 411 -1.1144910939037800e-02</internalNodes>
          <leafValues>
            -9.1823339462280273e-01 6.3552796840667725e-02</leafValues></_>
        <_>
          <internalNodes>
            0 -1 141 -2.1882085129618645e-03</internalNodes>
          <leafValues>
            3.3128449320793152e-01 -1.4211268723011017e-01</leafValues></_>
        <_>
          <internalNodes>
            0 -1 613 -2.1308520808815956e-03</internalNodes>
          <leafValues>
            4.1346737742424011e-01 -1.1275568604469299e-01</leafValues></_>
        <_>
          <internalNodes>
            0 -1 596 -3.5043427487835288e-04</internalNodes>
          <leafValues>
            2.6671448349952698e-01 -1.5624001622200012e-01</leafValues></_>
        <_>
          <internalNodes>
            0 -1 108 -5.7237542932853103e-04</internalNodes>
          <leafValues>
            2.6860386133193970e-01 -1.4869506657123566e-01</leafValues></_>
        <_>
          <internalNodes>
            0 -1 632 2.0685258787125349e-03</internalNodes>
          <leafValues>
            -9.9240481853485107e-02 3.6596256494522095e-01</leafValues></_>
        <_>
          <internalNodes>
            0 -1 174 1.1056105140596628e-03</internalNodes>
          <leafValues>
            -9.8205454647541046e-02 3.5427528619766235e-01</leafValues></_>
        <_>
          <internalNodes>
            0 -1 508 -1.7947214655578136e-03</internalNodes>
          <leafValues>
            3.0662146210670471e-01 -1.0967392474412918e-01</leafValues></_>
        <_>
          <internalNodes>
            0 -1 577 2.9352153651416302e-03</internalNodes>
          <leafValues>
            -1.2953865528106689e-01 2.6881563663482666e-01</leafValues></_>
        <_>
          <internalNodes>
            0 -1 164 -2.1205369848757982e-03</internalNodes>
          <leafValues>
            2.2585517168045044e-01 -1.6408415138721466e-01</leafValues></_>
        <_>
          <internalNodes>
            0 -1 565 4.2958237463608384e-04</internalNodes>
          <leafValues>
            -1.5812170505523682e-01 2.3160062730312347e-01</leafValues></_>
        <_>
          <internalNodes>
            0 -1 514 -3.3821210265159607e-02</internalNodes>
          <leafValues>
            -7.4254631996154785e-01 6.3162170350551605e-02</leafValues></_>
        <_>
          <internalNodes>
            0 -1 314 1.0599698871374130e-03</internalNodes>
          <leafValues>
            -1.6430212557315826e-01 2.2876170277595520e-01</leafValues></_>
        <_>
          <internalNodes>
            0 -1 516 -4.4452835572883487e-04</internalNodes>
          <leafValues>
            2.0257607102394104e-01 -1.6528347134590149e-01</leafValues></_>
        <_>
          <internalNodes>
            0 -1 153 -1.9859310705214739e-03</internalNodes>
          <leafValues>
            2.9659429192543030e-01 -1.0962790250778198e-01</leafValues></_></weakClassifiers></_>
    <!-- stage 1 -->
    <_>
      <maxWeakCount>55</maxWeakCount>
      <stageThreshold>-7.3442399501800537e-01</stageThreshold>
      <weakClassifiers>
        <_>
          <internalNodes>
            0 -1 566 -2.8189423028379679e-03</internalNodes>
          <leafValues>
            5.8835756778717041e-01 1.9217491149902344e-01</leafValues></_>
        <_>
          <internalNodes>
            0 -1 46 5.2980566397309303e-04</internalNodes>
          <leafValues>
            -1.7665605247020721e-01 2.4319756031036377e-01</leafValues></_>
        <_>
          <internalNodes>
            0 -1 112 9.4454921782016754e-03</internalNodes>
          <leafValues>
            -1.0656623542308807e-01 3.6755865812301636e-01</leafValues></_>
        <_>
          <internalNodes>
            0 -1 354 -1.6323407180607319e-03</internalNodes>
          <leafValues>
            2.5680875778198242e-01 -1.5409378707408905e-01</leafValues></_>
        <_>
          <internalNodes>
            0 -1 444 -4.5232875272631645e-03</internalNodes>
          <leafValues>
            2.2390682995319366e-01 -1.6336148977279663e-01</leafValues></_>
        <_>
          <internalNodes>
            0 -1 517 6.1154682189226151e-03</internalNodes>
          <leafValues>
            -1.2118092924356461e-01 3.0405250191688538e-01</leafValues></_>
        <_>
          <internalNodes>
            0 -1 70 -8.1727644428610802e-03</internalNodes>
          <leafValues>
            3.5419023036956787e-01 -9.9492765963077545e-02</leafValues></_>
        <_>
          <internalNodes>
            0 -1 332 -1.0220669209957123e-03</internalNodes>
          <leafValues>
            2.9773160815238953e-01 -1.0179648548364639e-01</leafValues></_>
        <_>
          <internalNodes>
            0 -1 449 -1.9300263375043869e-02</internalNodes>
          <leafValues>
            -5.2376800775527954e-01 6.3105307519435883e-02</leafValues></_>
        <_>
          <internalNodes>
            0 -1 531 6.6448468714952469e-03</internalNodes>
          <leafValues>
            3.7568122148513794e-02 -7.5763362646102905e-01</leafValues></_>
        <_>
          <internalNodes>
            0 -1 42 -8.4391469135880470e-03</internalNodes>
          <leafValues>
            2.8239980340003967e-01 -1.0411296039819717e-01</leafValues></_>
        <_>
          <internalNodes>
            0 -1 669 1.1695509310811758e-03</internalNodes>
          <leafValues>
            -1.3379786908626556e-01 2.0618097484111786e-01</leafValues></_>
        <_>
          <internalNodes>
            0 -1 529 -2.7554705739021301e-03</internalNodes>
          <leafValues>
            -4.3402561545372009e-01 6.6005006432533264e-02</leafValues></_>
        <_>
          <internalNodes>
            0 -1 320 -9.5678726211190224e-04</internalNodes>
          <leafValues>
            1.8754522502422333e-01 -1.3350000977516174e-01</leafValues></_>
        <_>
          <internalNodes>
            0 -1 362 -6.2169395387172699e-03</internalNodes>
          <leafValues>
            -7.2978681325912476e-01 3.5032808780670166e-02</leafValues></_>
        <_>
          <internalNodes>
            0 -1 480 7.9541187733411789e-04</internalNodes>
          <leafValues>
            -1.6331557929515839e-01 1.5933977067470551e-01</leafValues></_>
        <_>
          <internalNodes>
            0 -1 377 1.3725154567509890e-03</internalNodes>
          <leafValues>
            -1.3950739800930023e-01 2.0207422971725464e-01</leafValues></_>
        <_>
          <internalNodes>
            0 -1 130 5.2031418308615685e-03</internalNodes>
          <leafValues>
            -1.0215434432029724e-01 2.7242699265480042e-01</leafValues></_>
        <_>
          <internalNodes>
            0 -1 411 -7.9301092773675919e-03</internalNodes>
          <leafValues>
            -6.6794759035110474e-01 4.2191069573163986e-02</leafValues></_>
        <_>
          <internalNodes>
            0 -1 474 3.1467244029045105e-02</internalNodes>
          <leafValues>
            3.8841910660266876e-02 -6.0447204113006592e-01</leafValues></_>
        <_>
          <internalNodes>
            0 -1 349 4.9219815991818905e-04</internalNodes>
          <leafValues>
            -1.4343661069869995e-01 1.9475722312927246e-01</leafValues></_>
        <_>
          <internalNodes>
            0 -1 463 -4.2116316035389900e-03</internalNodes>
          <leafValues>
            2.2052140533924103e-01 -1.1540440469980240e-01</leafValues></_>
        <_>
          <internalNodes>
            0 -1 536 -1.6552498564124107e-03</internalNodes>
          <leafValues>
            2.6196607947349548e-01 -1.0811476409435272e-01</leafValues></_>
        <_>
          <internalNodes>
            0 -1 105 -1.4462500810623169e-02</internalNodes>
          <leafValues>
            -3.9374220371246338e-01 7.3313809931278229e-02</leafValues></_>
        <_>
          <internalNodes>
            0 -1 543 3.3713974989950657e-03</internalNodes>
          <leafValues>
            4.3990500271320343e-02 -5.7604682445526123e-01</leafValues></_>
        <_>
          <internalNodes>
            0 -1 305 -7.8933994518592954e-04</internalNodes>
          <leafValues>
            2.3363436758518219e-01 -1.0776629298925400e-01</leafValues></_>
        <_>
          <internalNodes>
            0 -1 86 -1.8954070401377976e-04</internalNodes>
          <leafValues>
            1.7259112000465393e-01 -1.4349912106990814e-01</leafValues></_>
        <_>
          <internalNodes>
            0 -1 588 -6.0541892889887094e-04</internalNodes>
          <leafValues>
            1.8471327424049377e-01 -1.2785631418228149e-01</leafValues></_>
        <_>
          <internalNodes>
            0 -1 524 2.3905294947326183e-03</internalNodes>
          <leafValues>
            -9.3117408454418182e-02 2.5881534814834595e-01</leafValues></_>
        <_>
          <internalNodes>
            0 -1 612 -4.5330910943448544e-03</internalNodes>
          <leafValues>
            -4.8426637053489685e-01 4.6792384237051010e-02</leafValues></_>
        <_>
          <internalNodes>
            0 -1 674 1.3138783164322376e-02</internalNodes>
          <leafValues>
            -7.1654006838798523e-02 3.4284278750419617e-01</leafValues></_>
        <_>
          <internalNodes>
            0 -1 409 -6.8793063983321190e-03</internalNodes>
          <leafValues>
            -6.4805573225021362e-01 3.9290226995944977e-02</leafValues></_>
        <_>
          <internalNodes>
            0 -1 539 -1.0276229586452246e-03</internalNodes>
          <leafValues>
            2.5885289907455444e-01 -1.0084987431764603e-01</leafValues></_>
        <_>
          <internalNodes>
            0 -1 6 -2.6211579097434878e-04</internalNodes>
          <leafValues>
            1.7329199612140656e-01 -1.5098807215690613e-01</leafValues></_>
        <_>
          <internalNodes>
            0 -1 179 7.6408060267567635e-03</internalNodes>
          <leafValues>
            3.3526122570037842e-02 -7.5340873003005981e-01</leafValues></_>
        <_>
          <internalNodes>
            0 -1 58 -2.4089671205729246e-03</internalNodes>
          <leafValues>
            2.2696480154991150e-01 -1.1142978072166443e-01</leafValues></_>
        <_>
          <internalNodes>
            0 -1 550 1.7785273492336273e-02</internalNodes>
          <leafValues>
            2.6811400428414345e-02 -9.2729771137237549e-01</leafValues></_>
        <_>
          <internalNodes>
            0 -1 155 -3.7313200533390045e-02</internalNodes>
          <leafValues>
            4.3220824003219604e-01 -5.7730536907911301e-02</leafValues></_>
        <_>
          <internalNodes>
            0 -1 403 1.5776329673826694e-03</internalNodes>
          <leafValues>
            -1.1101525276899338e-01 2.0397943258285522e-01</leafValues></_>
        <_>
          <internalNodes>
            0 -1 271 5.8930873638018966e-04</internalNodes>
          <leafValues>
            -1.4730800688266754e-01 1.7273075878620148e-01</leafValues></_>
        <_>
          <internalNodes>
            0 -1 353 5.2208676934242249e-03</internalNodes>
          <leafValues>
            3.0168073251843452e-02 -7.7888798713684082e-01</leafValues></_>
        <_>
          <internalNodes>
            0 -1 388 -7.8984408173710108e-04</internalNodes>
          <leafValues>
            2.0278747379779816e-01 -1.1062385886907578e-01</leafValues></_>
        <_>
          <internalNodes>
            0 -1 300 3.3230041153728962e-03</internalNodes>
          <leafValues>
            -1.3834095001220703e-01 1.5413290262222290e-01</leafValues></_>
        <_>
          <internalNodes>
            0 -1 154 3.5342171788215637e-02</internalNodes>
          <leafValues>
            -6.4461231231689453e-02 4.3177431821823120e-01</leafValues></_>
        <_>
          <internalNodes>
            0 -1 597 -8.7835057638585567e-04</internalNodes>
          <leafValues>
            1.9588960707187653e-01 -1.1514656245708466e-01</leafValues></_>
        <_>
          <internalNodes>
            0 -1 73 9.0350992977619171e-03</internalNodes>
          <leafValues>
            -4.9421440809965134e-02 4.4202518463134766e-01</leafValues></_>
        <_>
          <internalNodes>
            0 -1 604 3.4067626111209393e-03</internalNodes>
          <leafValues>
            4.3464880436658859e-02 -5.4897826910018921e-01</leafValues></_>
        <_>
          <internalNodes>
            0 -1 136 -9.0950675075873733e-04</internalNodes>
          <leafValues>
            1.9548501074314117e-01 -1.1963508278131485e-01</leafValues></_>
        <_>
          <internalNodes>
            0 -1 500 2.9981704428792000e-03</internalNodes>
          <leafValues>
            5.3121581673622131e-02 -4.5102855563163757e-01</leafValues></_>
        <_>
          <internalNodes>
            0 -1 243 2.6345595251768827e-03</internalNodes>
          <leafValues>
            -9.1455556452274323e-02 2.7571386098861694e-01</leafValues></_>
        <_>
          <internalNodes>
            0 -1 178 3.8754146080464125e-03</internalNodes>
          <leafValues>
            -1.1085510253906250e-01 2.0715041458606720e-01</leafValues></_>
        <_>
          <internalNodes>
            0 -1 278 2.9338385909795761e-02</internalNodes>
          <leafValues>
            -7.3217459022998810e-02 3.1543582677841187e-01</leafValues></_>
        <_>
          <internalNodes>
            0 -1 110 9.8061412572860718e-03</internalNodes>
          <leafValues>
            6.3806474208831787e-02 -3.7011015415191650e-01</leafValues></_>
        <_>
          <internalNodes>
            0 -1 107 -1.4185947366058826e-03</internalNodes>
          <leafValues>
            2.0872962474822998e-01 -1.0669992119073868e-01</leafValues></_>
        <_>
          <internalNodes>
            0 -1 436 -1.7558687832206488e-03</internalNodes>
          <leafValues>
            2.0942690968513489e-01 -1.1110264807939529e-01</leafValues></_></weakClassifiers></_>
    <!-- stage 2 -->
    <_>
      <maxWeakCount>65</maxWeakCount>
      <stageThreshold>-6.0775929689407349e-01</stageThreshold>
      <weakClassifiers>
        <_>
          <internalNodes>
            0 -1 416 2.7466196566820145e-02</internalNodes>
          <leafValues>
            3.5781902074813843e-01 -7.6271188259124756e-01</leafValues></_>
        <_>
          <internalNodes>
            0 -1 476 4.5904720900580287e-04</internalNodes>
          <leafValues>
            -1.5623532235622406e-01 2.3775848746299744e-01</leafValues></_>
        <_>
          <internalNodes>
            0 -1 240 -9.3358522281050682e-03</internalNodes>
          <leafValues>
            2.9492792487144470e-01 -1.0930442810058594e-01</leafValues></_>
        <_>
          <internalNodes>
            0 -1 645 -1.2112136464565992e-03</internalNodes>
          <leafValues>
            2.8819829225540161e-01 -9.7723476588726044e-02</leafValues></_>
        <_>
          <internalNodes>
            0 -1 117 3.7024049088358879e-03</internalNodes>
          <leafValues>
            -8.4603637456893921e-02 3.6819869279861450e-01</leafValues></_>
        <_>
          <internalNodes>
            0 -1 472 -5.2437167614698410e-03</internalNodes>
          <leafValues>
            1.8621474504470825e-01 -1.4830181002616882e-01</leafValues></_>
        <_>
          <internalNodes>
            0 -1 119 5.0787185318768024e-04</internalNodes>
          <leafValues>
            -1.3667519390583038e-01 2.1572493016719818e-01</leafValues></_>
        <_>
          <internalNodes>
            0 -1 535 -3.4850970841944218e-03</internalNodes>
          <leafValues>
            -4.7624593973159790e-01 5.5397890508174896e-02</leafValues></_>
        <_>
          <internalNodes>
            0 -1 540 -1.7836922779679298e-03</internalNodes>
          <leafValues>
            2.0325990021228790e-01 -1.3189475238323212e-01</leafValues></_>
        <_>
          <internalNodes>
            0 -1 334 -8.5098214913159609e-04</internalNodes>
          <leafValues>
            1.9561326503753662e-01 -1.3652817904949188e-01</leafValues></_>
        <_>
          <internalNodes>
            0 -1 391 -1.4547745231539011e-03</internalNodes>
          <leafValues>
            2.3939017951488495e-01 -1.0673964768648148e-01</leafValues></_>
        <_>
          <internalNodes>
            0 -1 370 6.6421153023838997e-03</internalNodes>
          <leafValues>
            6.2258794903755188e-02 -4.1984120011329651e-01</leafValues></_>
        <_>
          <internalNodes>
            0 -1 400 1.8202248960733414e-02</internalNodes>
          <leafValues>
            4.1971638798713684e-02 -6.3673037290573120e-01</leafValues></_>
        <_>
          <internalNodes>
            0 -1 49 6.6561868879944086e-04</internalNodes>
          <leafValues>
            -1.3826668262481689e-01 2.0465309917926788e-01</leafValues></_>
        <_>
          <internalNodes>
            0 -1 57 -2.2556209005415440e-03</internalNodes>
          <leafValues>
            2.5018224120140076e-01 -9.0992294251918793e-02</leafValues></_>
        <_>
          <internalNodes>
            0 -1 530 1.1296509765088558e-03</internalNodes>
          <leafValues>
            -1.0567927360534668e-01 2.2056965529918671e-01</leafValues></_>
        <_>
          <internalNodes>
            0 -1 488 2.3520635440945625e-03</internalNodes>
          <leafValues>
            -7.8929580748081207e-02 3.1262746453285217e-01</leafValues></_>
        <_>
          <internalNodes>
            0 -1 66 -1.0088872164487839e-02</internalNodes>
          <leafValues>
            -1.6670988500118256e-01 1.2581518292427063e-01</leafValues></_>
        <_>
          <internalNodes>
            0 -1 129 1.0045269504189491e-02</internalNodes>
          <leafValues>
            -9.7703538835048676e-02 2.6240110397338867e-01</leafValues></_>
        <_>
          <internalNodes>
            0 -1 670 2.3864358663558960e-03</internalNodes>
          <leafValues>
            -9.5265500247478485e-02 2.1077398955821991e-01</leafValues></_>
        <_>
          <internalNodes>
            0 -1 422 6.6798664629459381e-03</internalNodes>
          <leafValues>
            5.0045721232891083e-02 -4.4187352061271667e-01</leafValues></_>
        <_>
          <internalNodes>
            0 -1 160 5.0448393449187279e-04</internalNodes>
          <leafValues>
            -1.5038587152957916e-01 1.4420650899410248e-01</leafValues></_>
        <_>
          <internalNodes>
            0 -1 440 4.3319361284375191e-03</internalNodes>
          <leafValues>
            4.4519297778606415e-02 -4.5711842179298401e-01</leafValues></_>
        <_>
          <internalNodes>
            0 -1 191 -2.5847922079265118e-03</internalNodes>
          <leafValues>
            2.1934755146503448e-01 -9.5973931252956390e-02</leafValues></_>
        <_>
          <internalNodes>
            0 -1 641 2.2316558170132339e-04</internalNodes>
          <leafValues>
            -1.2373816221952438e-01 1.7173019051551819e-01</leafValues></_>
        <_>
          <internalNodes>
            0 -1 510 7.4797486886382103e-03</internalNodes>
          <leafValues>
            -8.5528388619422913e-02 2.5927096605300903e-01</leafValues></_>
        <_>
          <internalNodes>
            0 -1 386 5.4024555720388889e-03</internalNodes>
          <leafValues>
            4.2392227798700333e-02 -5.0738573074340820e-01</leafValues></_>
        <_>
          <internalNodes>
            0 -1 575 4.2864936403930187e-04</internalNodes>
          <leafValues>
            -1.2324009835720062e-01 1.6498118638992310e-01</leafValues></_>
        <_>
          <internalNodes>
            0 -1 675 -2.9182676225900650e-02</internalNodes>
          <leafValues>
            7.1505451202392578e-01 -2.5160115212202072e-02</leafValues></_>
        <_>
          <internalNodes>
            0 -1 348 6.0762639623135328e-04</internalNodes>
          <leafValues>
            -9.8005816340446472e-02 1.9446942210197449e-01</leafValues></_>
        <_>
          <internalNodes>
            0 -1 298 -6.0055986978113651e-03</internalNodes>
          <leafValues>
            2.7415239810943604e-01 -8.6505599319934845e-02</leafValues></_>
        <_>
          <internalNodes>
            0 -1 131 2.0226105116307735e-03</internalNodes>
          <leafValues>
            -8.4568478167057037e-02 2.3213745653629303e-01</leafValues></_>
        <_>
          <internalNodes>
            0 -1 135 -7.2605576133355498e-04</internalNodes>
          <leafValues>
            2.0490084588527679e-01 -1.0200635343790054e-01</leafValues></_>
        <_>
          <internalNodes>
            0 -1 206 -6.3482047989964485e-03</internalNodes>
          <leafValues>
            -6.0116153955459595e-01 3.7619832903146744e-02</leafValues></_>
        <_>
          <internalNodes>
            0 -1 453 -5.2529713138937950e-03</internalNodes>
          <leafValues>
            -8.3516812324523926e-01 1.8594576045870781e-02</leafValues></_>
        <_>
          <internalNodes>
            0 -1 601 2.8102276846766472e-03</internalNodes>
          <leafValues>
            -9.2922441661357880e-02 2.2653715312480927e-01</leafValues></_>
        <_>
          <internalNodes>
            0 -1 568 -1.0749115608632565e-02</internalNodes>
          <leafValues>
            2.7179029583930969e-01 -7.1910977363586426e-02</leafValues></_>
        <_>
          <internalNodes>
            0 -1 471 -3.6566443741321564e-02</internalNodes>
          <leafValues>
            -7.0709156990051270e-01 3.1948480755090714e-02</leafValues></_>
        <_>
          <internalNodes>
            0 -1 98 -5.9456326998770237e-03</internalNodes>
          <leafValues>
            1.5813638269901276e-01 -1.4813312888145447e-01</leafValues></_>
        <_>
          <internalNodes>
            0 -1 534 4.4134119525551796e-03</internalNodes>
          <leafValues>
            2.6894725859165192e-02 -8.0905824899673462e-01</leafValues></_>
        <_>
          <internalNodes>
            0 -1 89 -2.4666666984558105e-02</internalNodes>
          <leafValues>
            -2.9678902029991150e-01 6.7048735916614532e-02</leafValues></_>
        <_>
          <internalNodes>
            0 -1 88 -7.3755662888288498e-03</internalNodes>
          <leafValues>
            -1.8240463733673096e-01 1.1311986297369003e-01</leafValues></_>
        <_>
          <internalNodes>
            0 -1 489 2.0242050290107727e-02</internalNodes>
          <leafValues>
            3.7207301706075668e-02 -6.0163611173629761e-01</leafValues></_>
        <_>
          <internalNodes>
            0 -1 549 -7.8135973308235407e-04</internalNodes>
          <leafValues>
            1.8689455091953278e-01 -1.2085034698247910e-01</leafValues></_>
        <_>
          <internalNodes>
            0 -1 78 1.9644754938781261e-03</internalNodes>
          <leafValues>
            -1.0157611966133118e-01 1.9903922080993652e-01</leafValues></_>
        <_>
          <internalNodes>
            0 -1 31 -8.3980839699506760e-03</internalNodes>
          <leafValues>
            1.9976775348186493e-01 -1.0497635602951050e-01</leafValues></_>
        <_>
          <internalNodes>
            0 -1 635 4.6565957367420197e-02</internalNodes>
          <leafValues>
            -5.9943698346614838e-02 3.6155122518539429e-01</leafValues></_>
        <_>
          <internalNodes>
            0 -1 598 -5.6240065023303032e-03</internalNodes>
          <leafValues>
            -7.0159173011779785e-01 2.9477285221219063e-02</leafValues></_>
        <_>
          <internalNodes>
            0 -1 223 -3.1408783048391342e-02</internalNodes>
          <leafValues>
            -4.7796574234962463e-01 4.3115645647048950e-02</leafValues></_>
        <_>
          <internalNodes>
            0 -1 244 3.2606618478894234e-03</internalNodes>
          <leafValues>
            3.7399195134639740e-02 -4.9314779043197632e-01</leafValues></_>
        <_>
          <internalNodes>
            0 -1 108 -1.0022018104791641e-03</internalNodes>
          <leafValues>
            2.2298076748847961e-01 -9.3984395265579224e-02</leafValues></_>
        <_>
          <internalNodes>
            0 -1 644 1.1676563881337643e-03</internalNodes>
          <leafValues>
            -1.1343896389007568e-01 1.8152764439582825e-01</leafValues></_>
        <_>
          <internalNodes>
            0 -1 509 1.1012759059667587e-02</internalNodes>
          <leafValues>
            -7.3815472424030304e-02 2.6358494162559509e-01</leafValues></_>
        <_>
          <internalNodes>
            0 -1 231 -1.0971154086291790e-02</internalNodes>
          <leafValues>
            3.6521235108375549e-01 -5.6361842900514603e-02</leafValues></_>
        <_>
          <internalNodes>
            0 -1 10 8.4964279085397720e-03</internalNodes>
          <leafValues>
            5.7549960911273956e-02 -3.6883291602134705e-01</leafValues></_>
        <_>
          <internalNodes>
            0 -1 44 -6.3189724460244179e-04</internalNodes>
          <leafValues>
            1.8487855792045593e-01 -1.1714638769626617e-01</leafValues></_>
        <_>
          <internalNodes>
            0 -1 47 1.9794951658695936e-03</internalNodes>
          <leafValues>
            -1.2159749120473862e-01 2.3184144496917725e-01</leafValues></_>
        <_>
          <internalNodes>
            0 -1 133 -3.2057957723736763e-03</internalNodes>
          <leafValues>
            2.0542424917221069e-01 -1.0052445530891418e-01</leafValues></_>
        <_>
          <internalNodes>
            0 -1 205 2.9220650903880596e-03</internalNodes>
          <leafValues>
            -8.6640477180480957e-02 2.5165587663650513e-01</leafValues></_>
        <_>
          <internalNodes>
            0 -1 177 -6.2926961109042168e-03</internalNodes>
          <leafValues>
            3.3748835325241089e-01 -7.0786371827125549e-02</leafValues></_>
        <_>
          <internalNodes>
            0 -1 478 4.1464036330580711e-03</internalNodes>
          <leafValues>
            5.5389713495969772e-02 -4.2507126927375793e-01</leafValues></_>
        <_>
          <internalNodes>
            0 -1 533 2.8067422099411488e-03</internalNodes>
          <leafValues>
            -1.4609706401824951e-01 1.4640390872955322e-01</leafValues></_>
        <_>
          <internalNodes>
            0 -1 664 -8.7321188766509295e-04</internalNodes>
          <leafValues>
            1.7197275161743164e-01 -1.3974952697753906e-01</leafValues></_>
        <_>
          <internalNodes>
            0 -1 627 1.1648129671812057e-02</internalNodes>
          <leafValues>
            4.2618889361619949e-02 -5.8153563737869263e-01</leafValues></_>
        <_>
          <internalNodes>
            0 -1 653 3.4909465466625988e-04</internalNodes>
          <leafValues>
            -1.2456554919481277e-01 1.6767826676368713e-01</leafValues></_></weakClassifiers></_>
    <!-- stage 3 -->
    <_>
      <maxWeakCount>70</maxWeakCount>
      <stageThreshold>-6.5535455942153931e-01</stageThreshold>
      <weakClassifiers>
        <_>
          <internalNodes>
            0 -1 410 4.7890446148812771e-03</internalNodes>
          <leafValues>
            4.0008378028869629e-01 -1.7571884393692017e-01</leafValues></_>
        <_>
          <internalNodes>
            0 -1 407 -4.4311010278761387e-03</internalNodes>
          <leafValues>
            -4.6974936127662659e-01 7.0882827043533325e-02</leafValues></_>
        <_>
          <internalNodes>
            0 -1 455 -1.0660381987690926e-02</internalNodes>
          <leafValues>
            -4.0110653638839722e-01 5.4758273065090179e-02</leafValues></_>
        <_>
          <internalNodes>
            0 -1 290 7.0808241143822670e-03</internalNodes>
          <leafValues>
            -8.9638009667396545e-02 2.6453560590744019e-01</leafValues></_>
        <_>
          <internalNodes>
            0 -1 286 5.0419564358890057e-03</internalNodes>
          <leafValues>
            4.3515127152204514e-02 -5.3044742345809937e-01</leafValues></_>
        <_>
          <internalNodes>
            0 -1 415 -1.6815338749438524e-03</internalNodes>
          <leafValues>
            1.4111877977848053e-01 -1.6235813498497009e-01</leafValues></_>
        <_>
          <internalNodes>
            0 -1 400 -1.1305281892418861e-02</internalNodes>
          <leafValues>
            -4.4364893436431885e-01 3.0768774449825287e-02</leafValues></_>
        <_>
          <internalNodes>
            0 -1 428 5.3151889005675912e-04</internalNodes>
          <leafValues>
            -1.2387448549270630e-01 2.2191593050956726e-01</leafValues></_>
        <_>
          <internalNodes>
            0 -1 293 -4.3052034452557564e-03</internalNodes>
          <leafValues>
            1.5125840902328491e-01 -1.4898283779621124e-01</leafValues></_>
        <_>
          <internalNodes>
            0 -1 629 -3.4663097467273474e-03</internalNodes>
          <leafValues>
            -3.6893901228904724e-01 5.8248728513717651e-02</leafValues></_>
        <_>
          <internalNodes>
            0 -1 606 9.4360951334238052e-03</internalNodes>
          <leafValues>
            -8.4426209330558777e-02 2.5684738159179688e-01</leafValues></_>
        <_>
          <internalNodes>
            0 -1 229 4.7541940584778786e-03</internalNodes>
          <leafValues>
            4.1426759213209152e-02 -4.7122806310653687e-01</leafValues></_>
        <_>
          <internalNodes>
            0 -1 264 2.7574826963245869e-03</internalNodes>
          <leafValues>
            -6.5273895859718323e-02 3.4514307975769043e-01</leafValues></_>
        <_>
          <internalNodes>
            0 -1 269 2.7992464601993561e-03</internalNodes>
          <leafValues>
            -8.2795239984989166e-02 2.6110896468162537e-01</leafValues></_>
        <_>
          <internalNodes>
            0 -1 221 3.2485421746969223e-02</internalNodes>
          <leafValues>
            9.1551549732685089e-02 -2.8428938984870911e-01</leafValues></_>
        <_>
          <internalNodes>
            0 -1 333 2.8367973864078522e-03</internalNodes>
          <leafValues>
            6.2274396419525146e-02 -3.6951902508735657e-01</leafValues></_>
        <_>
          <internalNodes>
            0 -1 295 8.7751094251871109e-03</internalNodes>
          <leafValues>
            2.4075711145997047e-02 -7.3251616954803467e-01</leafValues></_>
        <_>
          <internalNodes>
            0 -1 505 4.9128215759992599e-03</internalNodes>
          <leafValues>
            -8.2249715924263000e-02 2.3832300305366516e-01</leafValues></_>
        <_>
          <internalNodes>
            0 -1 330 1.1338314041495323e-02</internalNodes>
          <leafValues>
            -5.5708482861518860e-02 3.4545072913169861e-01</leafValues></_>
        <_>
          <internalNodes>
            0 -1 326 7.0371925830841064e-03</internalNodes>
          <leafValues>
            -7.9495593905448914e-02 2.7281650900840759e-01</leafValues></_>
        <_>
          <internalNodes>
            0 -1 180 1.3835207559168339e-02</internalNodes>
          <leafValues>
            3.6291822791099548e-02 -5.7123738527297974e-01</leafValues></_>
        <_>
          <internalNodes>
            0 -1 495 3.0237231403589249e-03</internalNodes>
          <leafValues>
            5.0269491970539093e-02 -3.8138222694396973e-01</leafValues></_>
        <_>
          <internalNodes>
            0 -1 546 3.0215659644454718e-03</internalNodes>
          <leafValues>
            5.3939446806907654e-02 -3.6298197507858276e-01</leafValues></_>
        <_>
          <internalNodes>
            0 -1 546 -2.4065759498625994e-03</internalNodes>
          <leafValues>
            -3.3027145266532898e-01 7.3971353471279144e-02</leafValues></_>
        <_>
          <internalNodes>
            0 -1 69 -5.6509226560592651e-03</internalNodes>
          <leafValues>
            2.6733198761940002e-01 -7.8534275293350220e-02</leafValues></_>
        <_>
          <internalNodes>
            0 -1 456 -1.6018371097743511e-03</internalNodes>
          <leafValues>
            1.9308260083198547e-01 -1.0880284011363983e-01</leafValues></_>
        <_>
          <internalNodes>
            0 -1 623 2.2008093073964119e-03</internalNodes>
          <leafValues>
            -1.0970982164144516e-01 1.7037671804428101e-01</leafValues></_>
        <_>
          <internalNodes>
            0 -1 535 -3.2529053278267384e-03</internalNodes>
          <leafValues>
            -4.2288607358932495e-01 4.6062260866165161e-02</leafValues></_>
        <_>
          <internalNodes>
            0 -1 477 1.1276104487478733e-03</internalNodes>
          <leafValues>
            -8.0939561128616333e-02 2.5151053071022034e-01</leafValues></_>
        <_>
          <internalNodes>
            0 -1 573 -6.0395868495106697e-03</internalNodes>
          <leafValues>
            -5.5996441841125488e-01 3.6608017981052399e-02</leafValues></_>
        <_>
          <internalNodes>
            0 -1 374 -9.4639919698238373e-03</internalNodes>
          <leafValues>
            -4.1567003726959229e-01 4.5258130878210068e-02</leafValues></_>
        <_>
          <internalNodes>
            0 -1 650 -6.3309899996966124e-04</internalNodes>
          <leafValues>
            1.8958878517150879e-01 -1.0809522122144699e-01</leafValues></_>
        <_>
          <internalNodes>
            0 -1 18 -1.5164803480729461e-03</internalNodes>
          <leafValues>
            1.5917056798934937e-01 -1.2764927744865417e-01</leafValues></_>
        <_>
          <internalNodes>
            0 -1 59 1.8142163753509521e-02</internalNodes>
          <leafValues>
            4.1775267571210861e-02 -5.3817456960678101e-01</leafValues></_>
        <_>
          <internalNodes>
            0 -1 371 6.0330601409077644e-03</internalNodes>
          <leafValues>
            7.2327099740505219e-02 -2.6283276081085205e-01</leafValues></_>
        <_>
          <internalNodes>
            0 -1 427 -1.0297549888491631e-02</internalNodes>
          <leafValues>
            3.8249614834785461e-01 -4.7261491417884827e-02</leafValues></_>
        <_>
          <internalNodes>
            0 -1 637 7.3386495932936668e-03</internalNodes>
          <leafValues>
            -9.6801608800888062e-02 1.9369077682495117e-01</leafValues></_>
        <_>
          <internalNodes>
            0 -1 634 -2.0314618013799191e-03</internalNodes>
          <leafValues>
            -1.4934310317039490e-01 1.3242240250110626e-01</leafValues></_>
        <_>
          <internalNodes>
            0 -1 316 -9.5656365156173706e-03</internalNodes>
          <leafValues>
            -4.0131238102912903e-01 5.2064232528209686e-02</leafValues></_>
        <_>
          <internalNodes>
            0 -1 443 2.2003006935119629e-01</internalNodes>
          <leafValues>
            -3.1438868492841721e-02 7.3189932107925415e-01</leafValues></_>
        <_>
          <internalNodes>
            0 -1 423 2.1244003437459469e-03</internalNodes>
          <leafValues>
            -8.7649844586849213e-02 2.1716758608818054e-01</leafValues></_>
        <_>
          <internalNodes>
            0 -1 409 6.2934467568993568e-03</internalNodes>
          <leafValues>
            4.1487619280815125e-02 -4.4429433345794678e-01</leafValues></_>
        <_>
          <internalNodes>
            0 -1 659 7.0249028503894806e-03</internalNodes>
          <leafValues>
            2.6693714782595634e-02 -6.8959093093872070e-01</leafValues></_>
        <_>
          <internalNodes>
            0 -1 209 -1.9262207206338644e-03</internalNodes>
          <leafValues>
            1.9375056028366089e-01 -9.6485316753387451e-02</leafValues></_>
        <_>
          <internalNodes>
            0 -1 285 1.1417604982852936e-03</internalNodes>
          <leafValues>
            -9.2278979718685150e-02 2.9587101936340332e-01</leafValues></_>
        <_>
          <internalNodes>
            0 -1 208 -2.2510930430144072e-03</internalNodes>
          <leafValues>
            2.4532103538513184e-01 -8.9853204786777496e-02</leafValues></_>
        <_>
          <internalNodes>
            0 -1 263 -7.5330324470996857e-03</internalNodes>
          <leafValues>
            -8.8606524467468262e-01 2.2019814699888229e-02</leafValues></_>
        <_>
          <internalNodes>
            0 -1 33 -4.4317811727523804e-02</internalNodes>
          <leafValues>
            4.6212342381477356e-01 -4.1976753622293472e-02</leafValues></_>
        <_>
          <internalNodes>
            0 -1 27 -7.8435864998027682e-04</internalNodes>
          <leafValues>
            -2.1896909177303314e-01 8.4639109671115875e-02</leafValues></_>
        <_>
          <internalNodes>
            0 -1 392 3.2795532606542110e-03</internalNodes>
          <leafValues>
            4.1530221700668335e-02 -4.4916304945945740e-01</leafValues></_>
        <_>
          <internalNodes>
            0 -1 309 -2.9850678984075785e-03</internalNodes>
          <leafValues>
            1.4549708366394043e-01 -1.2743562459945679e-01</leafValues></_>
        <_>
          <internalNodes>
            0 -1 470 2.0430912263691425e-03</internalNodes>
          <leafValues>
            -8.2961656153202057e-02 2.4795779585838318e-01</leafValues></_>
        <_>
          <internalNodes>
            0 -1 454 9.6797309815883636e-03</internalNodes>
          <leafValues>
            6.5349087119102478e-02 -3.2611328363418579e-01</leafValues></_>
        <_>
          <internalNodes>
            0 -1 493 1.0645244270563126e-02</internalNodes>
          <leafValues>
            -3.5232868045568466e-02 5.8681875467300415e-01</leafValues></_>
        <_>
          <internalNodes>
            0 -1 32 4.3716527521610260e-02</internalNodes>
          <leafValues>
            -3.4334830939769745e-02 4.9471834301948547e-01</leafValues></_>
        <_>
          <internalNodes>
            0 -1 478 6.1871837824583054e-03</internalNodes>
          <leafValues>
            3.0349191278219223e-02 -6.6547983884811401e-01</leafValues></_>
        <_>
          <internalNodes>
            0 -1 302 -5.9471335262060165e-02</internalNodes>
          <leafValues>
            -8.8848674297332764e-01 1.9318094477057457e-02</leafValues></_>
        <_>
          <internalNodes>
            0 -1 390 -1.2400201521813869e-03</internalNodes>
          <leafValues>
            2.3228661715984344e-01 -8.7621659040451050e-02</leafValues></_>
        <_>
          <internalNodes>
            0 -1 341 -4.3971072882413864e-03</internalNodes>
          <leafValues>
            -6.8597406148910522e-01 3.4272734075784683e-02</leafValues></_>
        <_>
          <internalNodes>
            0 -1 183 1.2138200690969825e-03</internalNodes>
          <leafValues>
            -1.2510979175567627e-01 1.5254481136798859e-01</leafValues></_>
        <_>
          <internalNodes>
            0 -1 515 -4.1396595537662506e-02</internalNodes>
          <leafValues>
            5.0238275527954102e-01 -3.5345457494258881e-02</leafValues></_>
        <_>
          <internalNodes>
            0 -1 519 7.5444579124450684e-03</internalNodes>
          <leafValues>
            4.3576348572969437e-02 -4.4660127162933350e-01</leafValues></_>
        <_>
          <internalNodes>
            0 -1 502 2.1140970289707184e-02</internalNodes>
          <leafValues>
            -4.9836155027151108e-02 3.8432365655899048e-01</leafValues></_>
        <_>
          <internalNodes>
            0 -1 161 -2.5230515003204346e-01</internalNodes>
          <leafValues>
            6.4976125955581665e-01 -2.2933553904294968e-02</leafValues></_>
        <_>
          <internalNodes>
            0 -1 40 -1.2222477048635483e-01</internalNodes>
          <leafValues>
            4.7373002767562866e-01 -3.4633830189704895e-02</leafValues></_>
        <_>
          <internalNodes>
            0 -1 624 -1.6409583389759064e-02</internalNodes>
          <leafValues>
            3.8779684901237488e-01 -4.8151433467864990e-02</leafValues></_>
        <_>
          <internalNodes>
            0 -1 261 -3.6061599384993315e-03</internalNodes>
          <leafValues>
            3.0949679017066956e-01 -5.6102376431226730e-02</leafValues></_>
        <_>
          <internalNodes>
            0 -1 640 1.3314012903720140e-04</internalNodes>
          <leafValues>
            -1.3333897292613983e-01 1.4080914855003357e-01</leafValues></_>
        <_>
          <internalNodes>
            0 -1 175 -5.5863810703158379e-03</internalNodes>
          <leafValues>
            -4.6652311086654663e-01 3.8199417293071747e-02</leafValues></_>
        <_>
          <internalNodes>
            0 -1 2 4.1066985577344894e-03</internalNodes>
          <leafValues>
            4.9597345292568207e-02 -3.4131351113319397e-01</leafValues></_></weakClassifiers></_>
    <!-- stage 4 -->
    <_>
      <maxWeakCount>80</maxWeakCount>
      <stageThreshold>-6.1380714178085327e-01</stageThreshold>
      <weakClassifiers>
        <_>
          <internalNodes>
            0 -1 562 -1.3321980368345976e-03</internalNodes>
          <leafValues>
            5.4048138856887817e-01 2.2732362151145935e-01</leafValues></_>
        <_>
          <internalNodes>
            0 -1 212 1.1414602398872375e-02</internalNodes>
          <leafValues>
            -6.3681960105895996e-02 3.7188187241554260e-01</leafValues></_>
        <_>
          <internalNodes>
            0 -1 557 1.7661858350038528e-02</internalNodes>
          <leafValues>
            -1.0204892605543137e-01 2.5416481494903564e-01</leafValues></_>
        <_>
          <internalNodes>
            0 -1 211 6.7014810629189014e-03</internalNodes>
          <leafValues>
            -1.2774212658405304e-01 2.4014756083488464e-01</leafValues></_>
        <_>
          <internalNodes>
            0 -1 280 4.1959835216403008e-03</internalNodes>
          <leafValues>
            -6.3259690999984741e-02 3.6205223202705383e-01</leafValues></_>
        <_>
          <internalNodes>
            0 -1 484 -1.3779703294858336e-03</internalNodes>
          <leafValues>
            -3.6242887377738953e-01 7.0616811513900757e-02</leafValues></_>
        <_>
          <internalNodes>
            0 -1 643 1.4677094295620918e-03</internalNodes>
          <leafValues>
            -9.0235829353332520e-02 2.2218598425388336e-01</leafValues></_>
        <_>
          <internalNodes>
            0 -1 275 -2.3367339745163918e-03</internalNodes>
          <leafValues>
            -2.2400169074535370e-01 8.9475557208061218e-02</leafValues></_>
        <_>
          <internalNodes>
            0 -1 393 -5.1028784364461899e-03</internalNodes>
          <leafValues>
            -6.0977315902709961e-01 3.5099327564239502e-02</leafValues></_>
        <_>
          <internalNodes>
            0 -1 262 -3.5977333318442106e-03</internalNodes>
          <leafValues>
            2.0052316784858704e-01 -9.7916327416896820e-02</leafValues></_>
        <_>
          <internalNodes>
            0 -1 203 -4.2535897227935493e-04</internalNodes>
          <leafValues>
            1.4986769855022430e-01 -1.3576704263687134e-01</leafValues></_>
        <_>
          <internalNodes>
            0 -1 413 -1.1652160435914993e-02</internalNodes>
          <leafValues>
            -5.8488053083419800e-01 3.7158895283937454e-02</leafValues></_>
        <_>
          <internalNodes>
            0 -1 457 9.3533154577016830e-03</internalNodes>
          <leafValues>
            -8.2657679915428162e-02 3.1232070922851562e-01</leafValues></_>
        <_>
          <internalNodes>
            0 -1 615 -3.6768412683159113e-03</internalNodes>
          <leafValues>
            -3.9061117172241211e-01 5.1955517381429672e-02</leafValues></_>
        <_>
          <internalNodes>
            0 -1 512 -4.1461577638983727e-03</internalNodes>
          <leafValues>
            2.1454632282257080e-01 -9.5267727971076965e-02</leafValues></_>
        <_>
          <internalNodes>
            0 -1 148 3.5738512873649597e-02</internalNodes>
          <leafValues>
            -3.7408716976642609e-02 4.5845729112625122e-01</leafValues></_>
        <_>
          <internalNodes>
            0 -1 497 4.6525802463293076e-03</internalNodes>
          <leafValues>
            3.8811940699815750e-02 -5.5965507030487061e-01</leafValues></_>
        <_>
          <internalNodes>
            0 -1 95 -2.7721403166651726e-02</internalNodes>
          <leafValues>
            3.1335872411727905e-01 -6.0587096959352493e-02</leafValues></_>
        <_>
          <internalNodes>
            0 -1 315 7.6938187703490257e-04</internalNodes>
          <leafValues>
            -1.2011360377073288e-01 1.7228834331035614e-01</leafValues></_>
        <_>
          <internalNodes>
            0 -1 233 -4.6508335508406162e-03</internalNodes>
          <leafValues>
            2.1631613373756409e-01 -8.5319273173809052e-02</leafValues></_>
        <_>
          <internalNodes>
            0 -1 230 3.7686212453991175e-03</internalNodes>
          <leafValues>
            -7.3473766446113586e-02 2.4925316870212555e-01</leafValues></_>
        <_>
          <internalNodes>
            0 -1 603 -4.9574756994843483e-03</internalNodes>
          <leafValues>
            -6.1134535074234009e-01 3.3423420041799545e-02</leafValues></_>
        <_>
          <internalNodes>
            0 -1 441 2.8865775093436241e-03</internalNodes>
          <leafValues>
            3.7513364106416702e-02 -4.4813653826713562e-01</leafValues></_>
        <_>
          <internalNodes>
            0 -1 323 -6.6128820180892944e-02</internalNodes>
          <leafValues>
            -3.6077848076820374e-01 4.7311004251241684e-02</leafValues></_>
        <_>
          <internalNodes>
            0 -1 490 -8.5705138742923737e-02</internalNodes>
          <leafValues>
            -5.4016917943954468e-01 3.1902868300676346e-02</leafValues></_>
        <_>
          <internalNodes>
            0 -1 229 -4.9968934617936611e-03</internalNodes>
          <leafValues>
            -4.2586216330528259e-01 4.1030466556549072e-02</leafValues></_>
        <_>
          <internalNodes>
            0 -1 222 -2.5296434760093689e-03</internalNodes>
          <leafValues>
            1.8439401686191559e-01 -1.1922588199377060e-01</leafValues></_>
        <_>
          <internalNodes>
            0 -1 60 1.1977449059486389e-02</internalNodes>
          <leafValues>
            -8.0179035663604736e-02 2.1366617083549500e-01</leafValues></_>
        <_>
          <internalNodes>
            0 -1 21 1.0422840714454651e-03</internalNodes>
          <leafValues>
            8.2403108477592468e-02 -2.4470861256122589e-01</leafValues></_>
        <_>
          <internalNodes>
            0 -1 38 -4.1961815441027284e-04</internalNodes>
          <leafValues>
            1.3134071230888367e-01 -1.3720819354057312e-01</leafValues></_>
        <_>
          <internalNodes>
            0 -1 43 9.8612289875745773e-03</internalNodes>
          <leafValues>
            -8.8469304144382477e-02 1.9345994293689728e-01</leafValues></_>
        <_>
          <internalNodes>
            0 -1 288 -3.6499793641269207e-03</internalNodes>
          <leafValues>
            2.1332427859306335e-01 -8.1906817853450775e-02</leafValues></_>
        <_>
          <internalNodes>
            0 -1 467 -3.8207587786018848e-03</internalNodes>
          <leafValues>
            -6.5996032953262329e-01 2.8187520802021027e-02</leafValues></_>
        <_>
          <internalNodes>
            0 -1 82 -6.5554410219192505e-02</internalNodes>
          <leafValues>
            6.1175870895385742e-01 -3.2916545867919922e-02</leafValues></_>
        <_>
          <internalNodes>
            0 -1 120 -7.4695551302284002e-04</internalNodes>
          <leafValues>
            1.6568017005920410e-01 -1.0337905585765839e-01</leafValues></_>
        <_>
          <internalNodes>
            0 -1 383 -3.9150905795395374e-03</internalNodes>
          <leafValues>
            2.0438486337661743e-01 -9.2100210487842560e-02</leafValues></_>
        <_>
          <internalNodes>
            0 -1 382 2.6542688719928265e-03</internalNodes>
          <leafValues>
            -8.0830380320549011e-02 2.4524849653244019e-01</leafValues></_>
        <_>
          <internalNodes>
            0 -1 99 -3.2974751666188240e-03</internalNodes>
          <leafValues>
            -4.2352190613746643e-01 5.1539808511734009e-02</leafValues></_>
        <_>
          <internalNodes>
            0 -1 663 -2.5082747451961040e-03</internalNodes>
          <leafValues>
            -3.0535230040550232e-01 6.5401583909988403e-02</leafValues></_>
        <_>
          <internalNodes>
            0 -1 621 -3.1113218516111374e-02</internalNodes>
          <leafValues>
            3.7343838810920715e-01 -5.2513383328914642e-02</leafValues></_>
        <_>
          <internalNodes>
            0 -1 633 5.0317194312810898e-02</internalNodes>
          <leafValues>
            -4.4531408697366714e-02 3.7585684657096863e-01</leafValues></_>
        <_>
          <internalNodes>
            0 -1 560 -4.6571614220738411e-03</internalNodes>
          <leafValues>
            1.9361244142055511e-01 -9.6822842955589294e-02</leafValues></_>
        <_>
          <internalNodes>
            0 -1 482 -2.4892082437872887e-03</internalNodes>
          <leafValues>
            1.4799407124519348e-01 -1.4079017937183380e-01</leafValues></_>
        <_>
          <internalNodes>
            0 -1 652 2.4200519546866417e-03</internalNodes>
          <leafValues>
            5.4728597402572632e-02 -4.1075739264488220e-01</leafValues></_>
        <_>
          <internalNodes>
            0 -1 346 8.0324923619627953e-03</internalNodes>
          <leafValues>
            -9.7633220255374908e-02 1.9413897395133972e-01</leafValues></_>
        <_>
          <internalNodes>
            0 -1 578 -8.5211163386702538e-03</internalNodes>
          <leafValues>
            -4.6645608544349670e-01 4.3557301163673401e-02</leafValues></_>
        <_>
          <internalNodes>
            0 -1 102 9.9065946415066719e-04</internalNodes>
          <leafValues>
            -7.2856456041336060e-02 2.4356174468994141e-01</leafValues></_>
        <_>
          <internalNodes>
            0 -1 351 4.9721552059054375e-03</internalNodes>
          <leafValues>
            2.3308701813220978e-02 -7.9893034696578979e-01</leafValues></_>
        <_>
          <internalNodes>
            0 -1 303 -2.3415172472596169e-03</internalNodes>
          <leafValues>
            1.9931389391422272e-01 -9.2009373009204865e-02</leafValues></_>
        <_>
          <internalNodes>
            0 -1 358 1.6966526163741946e-03</internalNodes>
          <leafValues>
            -8.6490929126739502e-02 1.9992643594741821e-01</leafValues></_>
        <_>
          <internalNodes>
            0 -1 520 -5.1573710516095161e-04</internalNodes>
          <leafValues>
            1.8253898620605469e-01 -1.0198163986206055e-01</leafValues></_>
        <_>
          <internalNodes>
            0 -1 17 -1.6936801373958588e-02</internalNodes>
          <leafValues>
            3.0696028470993042e-01 -5.7507582008838654e-02</leafValues></_>
        <_>
          <internalNodes>
            0 -1 488 2.1114763803780079e-03</internalNodes>
          <leafValues>
            -7.5822405517101288e-02 2.6328730583190918e-01</leafValues></_>
        <_>
          <internalNodes>
            0 -1 75 1.1054404312744737e-03</internalNodes>
          <leafValues>
            7.5098268687725067e-02 -2.5769084692001343e-01</leafValues></_>
        <_>
          <internalNodes>
            0 -1 407 1.6114646568894386e-03</internalNodes>
          <leafValues>
            6.7863829433917999e-02 -2.5820556282997131e-01</leafValues></_>
        <_>
          <internalNodes>
            0 -1 399 -2.1202996373176575e-02</internalNodes>
          <leafValues>
            -3.6817544698715210e-01 5.2893266081809998e-02</leafValues></_>
        <_>
          <internalNodes>
            0 -1 528 1.3288315385580063e-03</internalNodes>
          <leafValues>
            -7.4684992432594299e-02 2.8471994400024414e-01</leafValues></_>
        <_>
          <internalNodes>
            0 -1 563 1.2146418448537588e-03</internalNodes>
          <leafValues>
            7.5307086110115051e-02 -3.3305913209915161e-01</leafValues></_>
        <_>
          <internalNodes>
            0 -1 335 1.3630022294819355e-03</internalNodes>
          <leafValues>
            -9.9226683378219604e-02 1.9193421304225922e-01</leafValues></_>
        <_>
          <internalNodes>
            0 -1 3 4.5136515051126480e-02</internalNodes>
          <leafValues>
            -2.8666080906987190e-02 5.9787684679031372e-01</leafValues></_>
        <_>
          <internalNodes>
            0 -1 570 6.7511722445487976e-02</internalNodes>
          <leafValues>
            -1.8222143873572350e-02 7.7581506967544556e-01</leafValues></_>
        <_>
          <internalNodes>
            0 -1 610 -2.4432656355202198e-03</internalNodes>
          <leafValues>
            1.8241688609123230e-01 -9.0435668826103210e-02</leafValues></_>
        <_>
          <internalNodes>
            0 -1 259 3.3061668276786804e-02</internalNodes>
          <leafValues>
            2.3493897169828415e-02 -7.4955105781555176e-01</leafValues></_>
        <_>
          <internalNodes>
            0 -1 192 -3.5718959406949580e-04</internalNodes>
          <leafValues>
            1.3746018707752228e-01 -1.2866319715976715e-01</leafValues></_>
        <_>
          <internalNodes>
            0 -1 407 -2.9538322705775499e-03</internalNodes>
          <leafValues>
            -3.0550667643547058e-01 5.8767788112163544e-02</leafValues></_>
        <_>
          <internalNodes>
            0 -1 657 -5.4681282490491867e-03</internalNodes>
          <leafValues>
            -7.7256250381469727e-01 2.1792568266391754e-02</leafValues></_>
        <_>
          <internalNodes>
            0 -1 479 6.8807357456535101e-04</internalNodes>
          <leafValues>
            -1.3283661007881165e-01 1.2556321918964386e-01</leafValues></_>
        <_>
          <internalNodes>
            0 -1 258 1.1109799146652222e-02</internalNodes>
          <leafValues>
            3.7275269627571106e-02 -4.5895504951477051e-01</leafValues></_>
        <_>
          <internalNodes>
            0 -1 118 5.2121472544968128e-03</internalNodes>
          <leafValues>
            -8.1758052110671997e-02 2.4079360067844391e-01</leafValues></_>
        <_>
          <internalNodes>
            0 -1 381 5.0511164590716362e-03</internalNodes>
          <leafValues>
            -8.2700014114379883e-02 2.2397156059741974e-01</leafValues></_>
        <_>
          <internalNodes>
            0 -1 327 -4.7401795163750648e-03</internalNodes>
          <leafValues>
            2.2988095879554749e-01 -1.0238169878721237e-01</leafValues></_>
        <_>
          <internalNodes>
            0 -1 672 -2.2917026653885841e-03</internalNodes>
          <leafValues>
            -3.2527947425842285e-01 5.8718021959066391e-02</leafValues></_>
        <_>
          <internalNodes>
            0 -1 68 -3.5580125404521823e-04</internalNodes>
          <leafValues>
            1.4345812797546387e-01 -1.3492469489574432e-01</leafValues></_>
        <_>
          <internalNodes>
            0 -1 206 -2.7005947194993496e-03</internalNodes>
          <leafValues>
            -3.0175873637199402e-01 6.1319552361965179e-02</leafValues></_>
        <_>
          <internalNodes>
            0 -1 127 1.8719602376222610e-02</internalNodes>
          <leafValues>
            -4.2301967740058899e-02 4.6980923414230347e-01</leafValues></_>
        <_>
          <internalNodes>
            0 -1 301 -9.6377730369567871e-03</internalNodes>
          <leafValues>
            3.2739651203155518e-01 -5.4829582571983337e-02</leafValues></_>
        <_>
          <internalNodes>
            0 -1 668 -1.9942731596529484e-03</internalNodes>
          <leafValues>
            1.6817119717597961e-01 -1.0396929085254669e-01</leafValues></_>
        <_>
          <internalNodes>
            0 -1 257 1.6972430050373077e-02</internalNodes>
          <leafValues>
            3.0253322795033455e-02 -5.7718908786773682e-01</leafValues></_>
        <_>
          <internalNodes>
            0 -1 547 -1.2360584223642945e-03</internalNodes>
          <leafValues>
            1.6412216424942017e-01 -1.0782843828201294e-01</leafValues></_>
        <_>
          <internalNodes>
            0 -1 24 1.2821843847632408e-02</internalNodes>
          <leafValues>
            -5.8720555156469345e-02 2.9580122232437134e-01</leafValues></_></weakClassifiers></_>
    <!-- stage 5 -->
    <_>
      <maxWeakCount>71</maxWeakCount>
      <stageThreshold>-5.3726530075073242e-01</stageThreshold>
      <weakClassifiers>
        <_>
          <internalNodes>
            0 -1 585 -1.5007774345576763e-03</internalNodes>
          <leafValues>
            5.2293580770492554e-01 2.2513088583946228e-01</leafValues></_>
        <_>
          <internalNodes>
            0 -1 562 -4.8859155504032969e-04</internalNodes>
          <leafValues>
            1.8797671794891357e-01 -1.3090862333774567e-01</leafValues></_>
        <_>
          <internalNodes>
            0 -1 45 -1.3110763393342495e-03</internalNodes>
          <leafValues>
            1.7142599821090698e-01 -1.4214386045932770e-01</leafValues></_>
        <_>
          <internalNodes>
            0 -1 48 7.2324844077229500e-03</internalNodes>
          <leafValues>
            -1.1282353848218918e-01 2.5296595692634583e-01</leafValues></_>
        <_>
          <internalNodes>
            0 -1 20 -2.2202186286449432e-02</internalNodes>
          <leafValues>
            3.7345850467681885e-01 -4.0506385266780853e-02</leafValues></_>
        <_>
          <internalNodes>
            0 -1 679 -9.1449401224963367e-05</internalNodes>
          <leafValues>
            1.2689468264579773e-01 -1.6520854830741882e-01</leafValues></_>
        <_>
          <internalNodes>
            0 -1 541 2.7505555190145969e-03</internalNodes>
          <leafValues>
            -8.2549728453159332e-02 2.3458006978034973e-01</leafValues></_>
        <_>
          <internalNodes>
            0 -1 372 -9.5968146342784166e-04</internalNodes>
          <leafValues>
            1.6035102307796478e-01 -1.2454403191804886e-01</leafValues></_>
        <_>
          <internalNodes>
            0 -1 269 -2.2369967773556709e-03</internalNodes>
          <leafValues>
            2.5167700648307800e-01 -8.0557137727737427e-02</leafValues></_>
        <_>
          <internalNodes>
            0 -1 269 1.9733929075300694e-03</internalNodes>
          <leafValues>
            -1.0264379531145096e-01 2.5869897007942200e-01</leafValues></_>
        <_>
          <internalNodes>
            0 -1 363 -4.4356072321534157e-03</internalNodes>
          <leafValues>
            -4.7572740912437439e-01 4.2696841061115265e-02</leafValues></_>
        <_>
          <internalNodes>
            0 -1 421 4.0651145391166210e-03</internalNodes>
          <leafValues>
            3.1070843338966370e-02 -7.0562863349914551e-01</leafValues></_>
        <_>
          <internalNodes>
            0 -1 171 8.1115425564348698e-04</internalNodes>
          <leafValues>
            -9.7780644893646240e-02 2.1508006751537323e-01</leafValues></_>
        <_>
          <internalNodes>
            0 -1 589 -3.5187457688152790e-03</internalNodes>
          <leafValues>
            -3.7949189543724060e-01 5.7881288230419159e-02</leafValues></_>
        <_>
          <internalNodes>
            0 -1 158 -4.0129320695996284e-03</internalNodes>
          <leafValues>
            1.6181881725788116e-01 -1.1963852494955063e-01</leafValues></_>
        <_>
          <internalNodes>
            0 -1 579 7.7891824766993523e-03</internalNodes>
          <leafValues>
            -8.9729875326156616e-02 2.2192892432212830e-01</leafValues></_>
        <_>
          <internalNodes>
            0 -1 475 7.4134150054305792e-04</internalNodes>
          <leafValues>
            1.1346556991338730e-01 -1.7379626631736755e-01</leafValues></_>
        <_>
          <internalNodes>
            0 -1 336 -1.7187226330861449e-03</internalNodes>
          <leafValues>
            1.6320639848709106e-01 -1.2161460518836975e-01</leafValues></_>
        <_>
          <internalNodes>
            0 -1 247 1.7218827269971371e-03</internalNodes>
          <leafValues>
            -1.0514970123767853e-01 1.7921499907970428e-01</leafValues></_>
        <_>
          <internalNodes>
            0 -1 142 -2.3472543805837631e-02</internalNodes>
          <leafValues>
            -7.3861229419708252e-01 2.4760730564594269e-02</leafValues></_>
        <_>
          <internalNodes>
            0 -1 439 4.5673865824937820e-03</internalNodes>
          <leafValues>
            2.4460729211568832e-02 -6.9255226850509644e-01</leafValues></_>
        <_>
          <internalNodes>
            0 -1 424 -4.0870733559131622e-02</internalNodes>
          <leafValues>
            -7.0978182554244995e-01 2.1874744445085526e-02</leafValues></_>
        <_>
          <internalNodes>
            0 -1 499 1.5191646292805672e-02</internalNodes>
          <leafValues>
            -5.0855100154876709e-02 3.9123421907424927e-01</leafValues></_>
        <_>
          <internalNodes>
            0 -1 84 2.9780762270092964e-03</internalNodes>
          <leafValues>
            -6.6610775887966156e-02 2.6000806689262390e-01</leafValues></_>
        <_>
          <internalNodes>
            0 -1 139 -1.0579987429082394e-03</internalNodes>
          <leafValues>
            2.1217775344848633e-01 -8.1564947962760925e-02</leafValues></_>
        <_>
          <internalNodes>
            0 -1 574 -6.0048559680581093e-03</internalNodes>
          <leafValues>
            -5.8403992652893066e-01 3.2012090086936951e-02</leafValues></_>
        <_>
          <internalNodes>
            0 -1 595 -8.6035183630883694e-04</internalNodes>
          <leafValues>
            1.8606191873550415e-01 -8.9507959783077240e-02</leafValues></_>
        <_>
          <internalNodes>
            0 -1 599 1.6691003693267703e-03</internalNodes>
          <leafValues>
            -1.2127374112606049e-01 2.1375147998332977e-01</leafValues></_>
        <_>
          <internalNodes>
            0 -1 567 -1.4913231134414673e-02</internalNodes>
          <leafValues>
            -6.1928075551986694e-01 3.3558692783117294e-02</leafValues></_>
        <_>
          <internalNodes>
            0 -1 122 -4.7321349382400513e-02</internalNodes>
          <leafValues>
            -4.4943454861640930e-01 3.5438086837530136e-02</leafValues></_>
        <_>
          <internalNodes>
            0 -1 676 2.7580927126109600e-03</internalNodes>
          <leafValues>
            -8.5717111825942993e-02 2.0540527999401093e-01</leafValues></_>
        <_>
          <internalNodes>
            0 -1 99 -4.0907943621277809e-03</internalNodes>
          <leafValues>
            -4.7170656919479370e-01 3.6669459193944931e-02</leafValues></_>
        <_>
          <internalNodes>
            0 -1 380 -3.0070815701037645e-03</internalNodes>
          <leafValues>
            2.0972396433353424e-01 -8.6352765560150146e-02</leafValues></_>
        <_>
          <internalNodes>
            0 -1 608 4.6053850091993809e-03</internalNodes>
          <leafValues>
            4.0193263441324234e-02 -4.3771889805793762e-01</leafValues></_>
        <_>
          <internalNodes>
            0 -1 216 -5.3951062727719545e-04</internalNodes>
          <leafValues>
            1.7259900271892548e-01 -1.0306709259748459e-01</leafValues></_>
        <_>
          <internalNodes>
            0 -1 398 1.2021059170365334e-02</internalNodes>
          <leafValues>
            5.0710372626781464e-02 -3.3895137906074524e-01</leafValues></_>
        <_>
          <internalNodes>
            0 -1 310 1.5899423509836197e-02</internalNodes>
          <leafValues>
            -7.8837849199771881e-02 2.3867723345756531e-01</leafValues></_>
        <_>
          <internalNodes>
            0 -1 649 5.7783134281635284e-02</internalNodes>
          <leafValues>
            -2.1902689710259438e-02 6.8273729085922241e-01</leafValues></_>
        <_>
          <internalNodes>
            0 -1 357 1.3271061703562737e-02</internalNodes>
          <leafValues>
            -2.9395025223493576e-02 5.2317476272583008e-01</leafValues></_>
        <_>
          <internalNodes>
            0 -1 232 1.6469597816467285e-02</internalNodes>
          <leafValues>
            3.7263784557580948e-02 -4.9072599411010742e-01</leafValues></_>
        <_>
          <internalNodes>
            0 -1 90 7.4030244722962379e-03</internalNodes>
          <leafValues>
            4.9465857446193695e-02 -3.2562395930290222e-01</leafValues></_>
        <_>
          <internalNodes>
            0 -1 318 -5.7439524680376053e-03</internalNodes>
          <leafValues>
            -5.9695637226104736e-01 2.7060495689511299e-02</leafValues></_>
        <_>
          <internalNodes>
            0 -1 227 1.6968205571174622e-02</internalNodes>
          <leafValues>
            -6.1286129057407379e-02 2.7944961190223694e-01</leafValues></_>
        <_>
          <internalNodes>
            0 -1 553 -8.5068296175450087e-04</internalNodes>
          <leafValues>
            1.4583593606948853e-01 -1.2021036446094513e-01</leafValues></_>
        <_>
          <internalNodes>
            0 -1 591 -8.9772487990558147e-04</internalNodes>
          <leafValues>
            1.9230043888092041e-01 -8.5162296891212463e-02</leafValues></_>
        <_>
          <internalNodes>
            0 -1 438 6.5198354423046112e-03</internalNodes>
          <leafValues>
            -6.3684232532978058e-02 2.7941715717315674e-01</leafValues></_>
        <_>
          <internalNodes>
            0 -1 586 -1.7646059393882751e-02</internalNodes>
          <leafValues>
            -7.5474619865417480e-01 2.6678273454308510e-02</leafValues></_>
        <_>
          <internalNodes>
            0 -1 628 -1.8535014241933823e-03</internalNodes>
          <leafValues>
            1.9243989884853363e-01 -9.5074415206909180e-02</leafValues></_>
        <_>
          <internalNodes>
            0 -1 587 -7.2251213714480400e-03</internalNodes>
          <leafValues>
            -2.9921287298202515e-01 6.8221576511859894e-02</leafValues></_>
        <_>
          <internalNodes>
            0 -1 304 -1.5372442081570625e-02</internalNodes>
          <leafValues>
            -2.4777777493000031e-01 6.9832012057304382e-02</leafValues></_>
        <_>
          <internalNodes>
            0 -1 192 -5.0721252337098122e-03</internalNodes>
          <leafValues>
            -4.5916682481765747e-01 4.0107347071170807e-02</leafValues></_>
        <_>
          <internalNodes>
            0 -1 355 -1.6995794139802456e-03</internalNodes>
          <leafValues>
            1.6636449098587036e-01 -1.0498946160078049e-01</leafValues></_>
        <_>
          <internalNodes>
            0 -1 93 8.9119058102369308e-03</internalNodes>
          <leafValues>
            -5.5227518081665039e-02 3.0497404932975769e-01</leafValues></_>
        <_>
          <internalNodes>
            0 -1 255 -2.5869859382510185e-02</internalNodes>
          <leafValues>
            -2.5677576661109924e-01 6.8828299641609192e-02</leafValues></_>
        <_>
          <internalNodes>
            0 -1 368 -1.0952983284369111e-03</internalNodes>
          <leafValues>
            1.9571627676486969e-01 -9.6623472869396210e-02</leafValues></_>
        <_>
          <internalNodes>
            0 -1 620 2.8824999928474426e-02</internalNodes>
          <leafValues>
            -3.4136891365051270e-02 4.4488954544067383e-01</leafValues></_>
        <_>
          <internalNodes>
            0 -1 272 5.9300288558006287e-04</internalNodes>
          <leafValues>
            -8.1670567393302917e-02 1.9854131340980530e-01</leafValues></_>
        <_>
          <internalNodes>
            0 -1 496 2.0152861252427101e-03</internalNodes>
          <leafValues>
            4.2458370327949524e-02 -3.6392703652381897e-01</leafValues></_>
        <_>
          <internalNodes>
            0 -1 650 -1.2825033627450466e-03</internalNodes>
          <leafValues>
            2.3475438356399536e-01 -6.9973416626453400e-02</leafValues></_>
        <_>
          <internalNodes>
            0 -1 34 -7.0029345806688070e-04</internalNodes>
          <leafValues>
            -1.8868841230869293e-01 8.5911713540554047e-02</leafValues></_>
        <_>
          <internalNodes>
            0 -1 5 -2.0728399977087975e-02</internalNodes>
          <leafValues>
            4.2871308326721191e-01 -4.1251257061958313e-02</leafValues></_>
        <_>
          <internalNodes>
            0 -1 459 -4.8053762875497341e-03</internalNodes>
          <leafValues>
            -7.6677143573760986e-01 2.3446964100003242e-02</leafValues></_>
        <_>
          <internalNodes>
            0 -1 81 -1.9500884227454662e-03</internalNodes>
          <leafValues>
            2.0250172913074493e-01 -8.7616242468357086e-02</leafValues></_>
        <_>
          <internalNodes>
            0 -1 234 -2.3513585329055786e-03</internalNodes>
          <leafValues>
            2.0712313055992126e-01 -8.1288643181324005e-02</leafValues></_>
        <_>
          <internalNodes>
            0 -1 235 8.2539971917867661e-03</internalNodes>
          <leafValues>
            -4.2320035398006439e-02 3.8064435124397278e-01</leafValues></_>
        <_>
          <internalNodes>
            0 -1 149 -8.2569815218448639e-02</internalNodes>
          <leafValues>
            6.4113235473632812e-01 -2.4434993043541908e-02</leafValues></_>
        <_>
          <internalNodes>
            0 -1 250 -3.9187420159578323e-02</internalNodes>
          <leafValues>
            -3.3523547649383545e-01 5.4661393165588379e-02</leafValues></_>
        <_>
          <internalNodes>
            0 -1 552 -4.4766757637262344e-03</internalNodes>
          <leafValues>
            -4.9205034971237183e-01 3.6371681839227676e-02</leafValues></_>
        <_>
          <internalNodes>
            0 -1 186 3.7052389234304428e-03</internalNodes>
          <leafValues>
            -8.5286982357501984e-02 1.8826809525489807e-01</leafValues></_>
        <_>
          <internalNodes>
            0 -1 79 1.4188511297106743e-02</internalNodes>
          <leafValues>
            4.2130518704652786e-02 -4.3367516994476318e-01</leafValues></_>
        <_>
          <internalNodes>
            0 -1 116 1.0247002355754375e-03</internalNodes>
          <leafValues>
            -1.1382952332496643e-01 1.3977320492267609e-01</leafValues></_></weakClassifiers></_>
    <!-- stage 6 -->
    <_>
      <maxWeakCount>94</maxWeakCount>
      <stageThreshold>-6.0920864343643188e-01</stageThreshold>
      <weakClassifiers>
        <_>
          <internalNodes>
            0 -1 204 2.8163101524114609e-03</internalNodes>
          <leafValues>
            2.3726026713848114e-01 5.3371429443359375e-01</leafValues></_>
        <_>
          <internalNodes>
            0 -1 626 -5.0865458324551582e-03</internalNodes>
          <leafValues>
            2.1544802188873291e-01 -7.9260244965553284e-02</leafValues></_>
        <_>
          <internalNodes>
            0 -1 45 -2.1805453579872847e-03</internalNodes>
          <leafValues>
            1.7128473520278931e-01 -1.0877890139818192e-01</leafValues></_>
        <_>
          <internalNodes>
            0 -1 401 6.6322758793830872e-03</internalNodes>
          <leafValues>
            -1.0661900788545609e-01 1.9666689634323120e-01</leafValues></_>
        <_>
          <internalNodes>
            0 -1 384 3.4918757155537605e-03</internalNodes>
          <leafValues>
            3.9986468851566315e-02 -3.5667660832405090e-01</leafValues></_>
        <_>
          <internalNodes>
            0 -1 491 5.1308691035956144e-04</internalNodes>
          <leafValues>
            -1.0826790332794189e-01 1.5903557837009430e-01</leafValues></_>
        <_>
          <internalNodes>
            0 -1 409 5.8349031023681164e-03</internalNodes>
          <leafValues>
            4.1519314050674438e-02 -4.1133871674537659e-01</leafValues></_>
        <_>
          <internalNodes>
            0 -1 364 3.5407971590757370e-03</internalNodes>
          <leafValues>
            -8.8202044367790222e-02 1.8510244786739349e-01</leafValues></_>
        <_>
          <internalNodes>
            0 -1 419 -5.0210477784276009e-03</internalNodes>
          <leafValues>
            -4.9610239267349243e-01 3.5400480031967163e-02</leafValues></_>
        <_>
          <internalNodes>
            0 -1 12 -4.5201727189123631e-03</internalNodes>
          <leafValues>
            1.7792318761348724e-01 -9.1982081532478333e-02</leafValues></_>
        <_>
          <internalNodes>
            0 -1 593 -4.7115436755120754e-03</internalNodes>
          <leafValues>
            -5.2799463272094727e-01 3.1069090589880943e-02</leafValues></_>
        <_>
          <internalNodes>
            0 -1 283 -5.1753171719610691e-03</internalNodes>
          <leafValues>
            2.2382009029388428e-01 -7.6562844216823578e-02</leafValues></_>
        <_>
          <internalNodes>
            0 -1 513 1.0586321353912354e-02</internalNodes>
          <leafValues>
            -3.5704765468835831e-02 4.2966750264167786e-01</leafValues></_>
        <_>
          <internalNodes>
            0 -1 655 -2.3096483200788498e-03</internalNodes>
          <leafValues>
            1.5982766449451447e-01 -1.0434894263744354e-01</leafValues></_>
        <_>
          <internalNodes>
            0 -1 92 6.8583087995648384e-03</internalNodes>
          <leafValues>
            2.1543456241488457e-02 -6.9420027732849121e-01</leafValues></_>
        <_>
          <internalNodes>
            0 -1 658 4.0386947803199291e-03</internalNodes>
          <leafValues>
            5.6214641779661179e-02 -3.0336406826972961e-01</leafValues></_>
        <_>
          <internalNodes>
            0 -1 442 -6.0959244146943092e-03</internalNodes>
          <leafValues>
            3.3001250028610229e-01 -5.6597501039505005e-02</leafValues></_>
        <_>
          <internalNodes>
            0 -1 646 5.1096617244184017e-04</internalNodes>
          <leafValues>
            -1.0431914031505585e-01 1.7425197362899780e-01</leafValues></_>
        <_>
          <internalNodes>
            0 -1 63 -4.2562466114759445e-03</internalNodes>
          <leafValues>
            -5.7634270191192627e-01 2.9780047014355659e-02</leafValues></_>
        <_>
          <internalNodes>
            0 -1 389 3.6766968667507172e-02</internalNodes>
          <leafValues>
            -5.3255576640367508e-02 3.1818723678588867e-01</leafValues></_>
        <_>
          <internalNodes>
            0 -1 642 2.6571964845061302e-03</internalNodes>
          <leafValues>
            -6.5916433930397034e-02 2.3718826472759247e-01</leafValues></_>
        <_>
          <internalNodes>
            0 -1 607 5.9593208134174347e-03</internalNodes>
          <leafValues>
            -9.7378730773925781e-02 1.7177809774875641e-01</leafValues></_>
        <_>
          <internalNodes>
            0 -1 507 -4.7034239396452904e-03</internalNodes>
          <leafValues>
            -4.7441262006759644e-01 4.0039107203483582e-02</leafValues></_>
        <_>
          <internalNodes>
            0 -1 504 2.0784297958016396e-03</internalNodes>
          <leafValues>
            6.0298919677734375e-02 -2.7594307065010071e-01</leafValues></_>
        <_>
          <internalNodes>
            0 -1 661 -9.9208680912852287e-03</internalNodes>
          <leafValues>
            6.3024610280990601e-01 -2.5726798921823502e-02</leafValues></_>
        <_>
          <internalNodes>
            0 -1 447 -5.5579338222742081e-03</internalNodes>
          <leafValues>
            -1.4715832471847534e-01 1.0870581865310669e-01</leafValues></_>
        <_>
          <internalNodes>
            0 -1 503 2.7329550357535481e-04</internalNodes>
          <leafValues>
            -1.0504502803087234e-01 1.5423817932605743e-01</leafValues></_>
        <_>
          <internalNodes>
            0 -1 328 6.2141492962837219e-03</internalNodes>
          <leafValues>
            -7.7963262796401978e-02 2.5831472873687744e-01</leafValues></_>
        <_>
          <internalNodes>
            0 -1 137 -5.2137617021799088e-03</internalNodes>
          <leafValues>
            2.1256257593631744e-01 -8.5451938211917877e-02</leafValues></_>
        <_>
          <internalNodes>
            0 -1 391 -7.4062804924324155e-04</internalNodes>
          <leafValues>
            1.5744601190090179e-01 -1.1720156669616699e-01</leafValues></_>
        <_>
          <internalNodes>
            0 -1 376 5.5981627665460110e-03</internalNodes>
          <leafValues>
            2.8102641925215721e-02 -6.8010026216506958e-01</leafValues></_>
        <_>
          <internalNodes>
            0 -1 260 4.2263618670403957e-03</internalNodes>
          <leafValues>
            2.3751266300678253e-02 -6.2086391448974609e-01</leafValues></_>
        <_>
          <internalNodes>
            0 -1 639 1.0728744789958000e-02</internalNodes>
          <leafValues>
            -4.9198839813470840e-02 3.3869469165802002e-01</leafValues></_>
        <_>
          <internalNodes>
            0 -1 242 -4.0404070168733597e-03</internalNodes>
          <leafValues>
            -5.5176645517349243e-01 3.2900832593441010e-02</leafValues></_>
        <_>
          <internalNodes>
            0 -1 347 -7.4883135966956615e-03</internalNodes>
          <leafValues>
            -8.2566708326339722e-01 1.4154198579490185e-02</leafValues></_>
        <_>
          <internalNodes>
            0 -1 522 -8.2214046269655228e-03</internalNodes>
          <leafValues>
            -7.6191955804824829e-01 1.8460256978869438e-02</leafValues></_>
        <_>
          <internalNodes>
            0 -1 361 -5.6259206030517817e-04</internalNodes>
          <leafValues>
            1.7914101481437683e-01 -9.0991780161857605e-02</leafValues></_>
        <_>
          <internalNodes>
            0 -1 631 9.0752867981791496e-04</internalNodes>
          <leafValues>
            8.6784735321998596e-02 -1.8487970530986786e-01</leafValues></_>
        <_>
          <internalNodes>
            0 -1 678 5.7036448270082474e-03</internalNodes>
          <leafValues>
            2.9010226950049400e-02 -5.2924680709838867e-01</leafValues></_>
        <_>
          <internalNodes>
            0 -1 367 -4.8632174730300903e-04</internalNodes>
          <leafValues>
            1.4104168117046356e-01 -1.1275323480367661e-01</leafValues></_>
        <_>
          <internalNodes>
            0 -1 420 1.7025190172716975e-03</internalNodes>
          <leafValues>
            -7.2570875287055969e-02 2.3481649160385132e-01</leafValues></_>
        <_>
          <internalNodes>
            0 -1 420 -1.1476784711703658e-03</internalNodes>
          <leafValues>
            1.8541289865970612e-01 -8.9688301086425781e-02</leafValues></_>
        <_>
          <internalNodes>
            0 -1 224 -1.1706317961215973e-01</internalNodes>
          <leafValues>
            -5.3943145275115967e-01 2.9885943979024887e-02</leafValues></_>
        <_>
          <internalNodes>
            0 -1 249 -1.2401153147220612e-01</internalNodes>
          <leafValues>
            -5.7461118698120117e-01 2.3681070655584335e-02</leafValues></_>
        <_>
          <internalNodes>
            0 -1 297 -2.9422026127576828e-03</internalNodes>
          <leafValues>
            1.6924266517162323e-01 -9.2432007193565369e-02</leafValues></_>
        <_>
          <internalNodes>
            0 -1 673 -5.0992413889616728e-04</internalNodes>
          <leafValues>
            -1.7287194728851318e-01 8.5724219679832458e-02</leafValues></_>
        <_>
          <internalNodes>
            0 -1 201 -7.8369677066802979e-03</internalNodes>
          <leafValues>
            -2.6711839437484741e-01 5.9145744889974594e-02</leafValues></_>
        <_>
          <internalNodes>
            0 -1 65 -1.2773031368851662e-02</internalNodes>
          <leafValues>
            -3.8883277773857117e-01 3.9826989173889160e-02</leafValues></_>
        <_>
          <internalNodes>
            0 -1 402 -1.8869867548346519e-02</internalNodes>
          <leafValues>
            -8.4646439552307129e-01 1.5477181412279606e-02</leafValues></_>
        <_>
          <internalNodes>
            0 -1 132 -1.1067753657698631e-02</internalNodes>
          <leafValues>
            2.4888488650321960e-01 -6.6562116146087646e-02</leafValues></_>
        <_>
          <internalNodes>
            0 -1 667 -1.0527664795517921e-02</internalNodes>
          <leafValues>
            -6.0576897859573364e-01 2.8072839602828026e-02</leafValues></_>
        <_>
          <internalNodes>
            0 -1 113 -3.8276985287666321e-03</internalNodes>
          <leafValues>
            -4.8908728361129761e-01 2.8171665966510773e-02</leafValues></_>
        <_>
          <internalNodes>
            0 -1 225 -2.6742781046777964e-03</internalNodes>
          <leafValues>
            1.8938064575195312e-01 -7.5404569506645203e-02</leafValues></_>
        <_>
          <internalNodes>
            0 -1 228 -8.5498660337179899e-04</internalNodes>
          <leafValues>
            1.9587884843349457e-01 -7.9471096396446228e-02</leafValues></_>
        <_>
          <internalNodes>
            0 -1 50 -4.5880014076828957e-03</internalNodes>
          <leafValues>
            2.0787012577056885e-01 -7.2285957634449005e-02</leafValues></_>
        <_>
          <internalNodes>
            0 -1 405 -1.2494368478655815e-02</internalNodes>
          <leafValues>
            -2.5637453794479370e-01 5.6258190423250198e-02</leafValues></_>
        <_>
          <internalNodes>
            0 -1 277 1.2908579781651497e-02</internalNodes>
          <leafValues>
            -7.3968447744846344e-02 2.3954294621944427e-01</leafValues></_>
        <_>
          <internalNodes>
            0 -1 464 5.0940211862325668e-02</internalNodes>
          <leafValues>
            2.2363133728504181e-02 -7.2333848476409912e-01</leafValues></_>
        <_>
          <internalNodes>
            0 -1 144 -6.1844503507018089e-03</internalNodes>
          <leafValues>
            -3.3211836218833923e-01 4.0108956396579742e-02</leafValues></_>
        <_>
          <internalNodes>
            0 -1 571 3.7349606864154339e-03</internalNodes>
          <leafValues>
            2.0319174975156784e-02 -6.8467265367507935e-01</leafValues></_>
        <_>
          <internalNodes>
            0 -1 576 -9.8096914589405060e-03</internalNodes>
          <leafValues>
            2.4002856016159058e-01 -6.9412343204021454e-02</leafValues></_>
        <_>
          <internalNodes>
            0 -1 55 7.7798939310014248e-04</internalNodes>
          <leafValues>
            -9.1126322746276855e-02 1.6676251590251923e-01</leafValues></_>
        <_>
          <internalNodes>
            0 -1 52 -4.8339334316551685e-03</internalNodes>
          <leafValues>
            -4.8215726017951965e-01 3.1194502487778664e-02</leafValues></_>
        <_>
          <internalNodes>
            0 -1 274 -9.8471925593912601e-04</internalNodes>
          <leafValues>
            1.3636742532253265e-01 -1.1094172298908234e-01</leafValues></_>
        <_>
          <internalNodes>
            0 -1 375 -7.7405283227562904e-03</internalNodes>
          <leafValues>
            -3.8976743817329407e-01 5.0395682454109192e-02</leafValues></_>
        <_>
          <internalNodes>
            0 -1 569 -1.2201657955301926e-04</internalNodes>
          <leafValues>
            1.0196736454963684e-01 -1.5569195151329041e-01</leafValues></_>
        <_>
          <internalNodes>
            0 -1 647 -5.4070666432380676e-02</internalNodes>
          <leafValues>
            4.8685753345489502e-01 -2.9562156647443771e-02</leafValues></_>
        <_>
          <internalNodes>
            0 -1 187 -3.0076841358095407e-03</internalNodes>
          <leafValues>
            1.4388038218021393e-01 -1.0713610053062439e-01</leafValues></_>
        <_>
          <internalNodes>
            0 -1 273 1.2185738887637854e-03</internalNodes>
          <leafValues>
            -7.7138110995292664e-02 1.7544057965278625e-01</leafValues></_>
        <_>
          <internalNodes>
            0 -1 365 1.1419973336160183e-02</internalNodes>
          <leafValues>
            3.1670220196247101e-02 -4.7788849472999573e-01</leafValues></_>
        <_>
          <internalNodes>
            0 -1 486 4.9679551739245653e-04</internalNodes>
          <leafValues>
            -1.2356873601675034e-01 1.2484011054039001e-01</leafValues></_>
        <_>
          <internalNodes>
            0 -1 660 1.0587323922663927e-03</internalNodes>
          <leafValues>
            7.4696987867355347e-02 -2.0161724090576172e-01</leafValues></_>
        <_>
          <internalNodes>
            0 -1 74 -2.5705039501190186e-02</internalNodes>
          <leafValues>
            5.3040170669555664e-01 -2.6960780844092369e-02</leafValues></_>
        <_>
          <internalNodes>
            0 -1 7 -1.3973403256386518e-03</internalNodes>
          <leafValues>
            1.6859185695648193e-01 -8.7653167545795441e-02</leafValues></_>
        <_>
          <internalNodes>
            0 -1 172 -1.5766317956149578e-03</internalNodes>
          <leafValues>
            1.6317172348499298e-01 -9.5067121088504791e-02</leafValues></_>
        <_>
          <internalNodes>
            0 -1 539 9.3252438819035888e-04</internalNodes>
          <leafValues>
            -7.2991915047168732e-02 2.3009219765663147e-01</leafValues></_>
        <_>
          <internalNodes>
            0 -1 666 -1.9245069706812501e-03</internalNodes>
          <leafValues>
            -3.1181693077087402e-01 4.7931298613548279e-02</leafValues></_>
        <_>
          <internalNodes>
            0 -1 170 8.1120599061250687e-03</internalNodes>
          <leafValues>
            6.4020499587059021e-02 -2.2784821689128876e-01</leafValues></_>
        <_>
          <internalNodes>
            0 -1 175 -5.0190910696983337e-03</internalNodes>
          <leafValues>
            -4.1783446073532104e-01 3.6385700106620789e-02</leafValues></_>
        <_>
          <internalNodes>
            0 -1 143 -9.4801950035616755e-04</internalNodes>
          <leafValues>
            1.8960802257061005e-01 -7.7255986630916595e-02</leafValues></_>
        <_>
          <internalNodes>
            0 -1 268 -3.8443197263404727e-04</internalNodes>
          <leafValues>
            1.3881200551986694e-01 -1.0601727664470673e-01</leafValues></_>
        <_>
          <internalNodes>
            0 -1 267 6.6091343760490417e-03</internalNodes>
          <leafValues>
            -1.0329844057559967e-01 1.8007053434848785e-01</leafValues></_>
        <_>
          <internalNodes>
            0 -1 131 2.0598177798092365e-03</internalNodes>
          <leafValues>
            -8.0883704125881195e-02 1.9884817302227020e-01</leafValues></_>
        <_>
          <internalNodes>
            0 -1 350 -1.1315916478633881e-01</internalNodes>
          <leafValues>
            9.7226279973983765e-01 -1.3697462156414986e-02</leafValues></_>
        <_>
          <internalNodes>
            0 -1 156 -1.1565552651882172e-01</internalNodes>
          <leafValues>
            -5.9800332784652710e-01 3.1534306704998016e-02</leafValues></_>
        <_>
          <internalNodes>
            0 -1 134 -4.0125162340700626e-03</internalNodes>
          <leafValues>
            1.6355143487453461e-01 -9.1782771050930023e-02</leafValues></_>
        <_>
          <internalNodes>
            0 -1 185 -3.4448213875293732e-02</internalNodes>
          <leafValues>
            -1.6218109428882599e-01 9.3028910458087921e-02</leafValues></_>
        <_>
          <internalNodes>
            0 -1 511 -1.4396232366561890e-01</internalNodes>
          <leafValues>
            3.5088050365447998e-01 -4.2723026126623154e-02</leafValues></_>
        <_>
          <internalNodes>
            0 -1 538 1.0700775310397148e-02</internalNodes>
          <leafValues>
            -4.5496288686990738e-02 2.9937499761581421e-01</leafValues></_>
        <_>
          <internalNodes>
            0 -1 465 2.0552549511194229e-02</internalNodes>
          <leafValues>
            -8.1169530749320984e-02 2.0546929538249969e-01</leafValues></_>
        <_>
          <internalNodes>
            0 -1 466 1.3178812805563211e-03</internalNodes>
          <leafValues>
            -1.0189121961593628e-01 1.5362268686294556e-01</leafValues></_>
        <_>
          <internalNodes>
            0 -1 542 -1.2347943149507046e-02</internalNodes>
          <leafValues>
            -4.6963638067245483e-01 3.5544995218515396e-02</leafValues></_>
        <_>
          <internalNodes>
            0 -1 518 4.6366091817617416e-02</internalNodes>
          <leafValues>
            -4.0814258158206940e-02 4.1077077388763428e-01</leafValues></_>
        <_>
          <internalNodes>
            0 -1 215 -8.6718937382102013e-03</internalNodes>
          <leafValues>
            -1.3635659217834473e-01 1.2410772591829300e-01</leafValues></_></weakClassifiers></_>
    <!-- stage 7 -->
    <_>
      <maxWeakCount>90</maxWeakCount>
      <stageThreshold>-5.2846378087997437e-01</stageThreshold>
      <weakClassifiers>
        <_>
          <internalNodes>
            0 -1 106 1.8491562455892563e-02</internalNodes>
          <leafValues>
            3.6523124575614929e-01 -8.3333335816860199e-02</leafValues></_>
        <_>
          <internalNodes>
            0 -1 545 -2.9412391595542431e-03</internalNodes>
          <leafValues>
            1.8525952100753784e-01 -8.8350482285022736e-02</leafValues></_>
        <_>
          <internalNodes>
            0 -1 525 -7.2558829560875893e-03</internalNodes>
          <leafValues>
            2.2319388389587402e-01 -7.3419257998466492e-02</leafValues></_>
        <_>
          <internalNodes>
            0 -1 528 1.4976924285292625e-03</internalNodes>
          <leafValues>
            -1.1239553987979889e-01 2.6479932665824890e-01</leafValues></_>
        <_>
          <internalNodes>
            0 -1 521 1.4436295023187995e-03</internalNodes>
          <leafValues>
            -8.2685038447380066e-02 2.1339149773120880e-01</leafValues></_>
        <_>
          <internalNodes>
            0 -1 544 1.8694151658564806e-03</internalNodes>
          <leafValues>
            -7.5698740780353546e-02 2.1427139639854431e-01</leafValues></_>
        <_>
          <internalNodes>
            0 -1 366 3.3548758365213871e-03</internalNodes>
          <leafValues>
            -1.1370181292295456e-01 1.9059714674949646e-01</leafValues></_>
        <_>
          <internalNodes>
            0 -1 430 1.4486154541373253e-03</internalNodes>
          <leafValues>
            -1.0964363068342209e-01 1.8183627724647522e-01</leafValues></_>
        <_>
          <internalNodes>
            0 -1 414 1.5941783785820007e-02</internalNodes>
          <leafValues>
            4.8840016126632690e-02 -4.5771354436874390e-01</leafValues></_>
        <_>
          <internalNodes>
            0 -1 266 -4.5052347704768181e-03</internalNodes>
          <leafValues>
            2.5791519880294800e-01 -7.5069524347782135e-02</leafValues></_>
        <_>
          <internalNodes>
            0 -1 603 -4.9604233354330063e-03</internalNodes>
          <leafValues>
            -5.8879971504211426e-01 3.5335090011358261e-02</leafValues></_>
        <_>
          <internalNodes>
            0 -1 462 -4.0331913623958826e-04</internalNodes>
          <leafValues>
            1.3450740277767181e-01 -1.2401911616325378e-01</leafValues></_>
        <_>
          <internalNodes>
            0 -1 23 -5.5929590016603470e-03</internalNodes>
          <leafValues>
            1.8368440866470337e-01 -8.6469538509845734e-02</leafValues></_>
        <_>
          <internalNodes>
            0 -1 150 3.7377089029178023e-04</internalNodes>
          <leafValues>
            -1.0863471776247025e-01 1.3967190682888031e-01</leafValues></_>
        <_>
          <internalNodes>
            0 -1 181 1.2032050639390945e-02</internalNodes>
          <leafValues>
            -4.9955859780311584e-02 2.9206863045692444e-01</leafValues></_>
        <_>
          <internalNodes>
            0 -1 213 -7.0978198200464249e-03</internalNodes>
          <leafValues>
            1.6942983865737915e-01 -9.1667488217353821e-02</leafValues></_>
        <_>
          <internalNodes>
            0 -1 0 6.9626614451408386e-02</internalNodes>
          <leafValues>
            -6.0757350176572800e-02 2.8039765357971191e-01</leafValues></_>
        <_>
          <internalNodes>
            0 -1 387 2.8364161029458046e-02</internalNodes>
          <leafValues>
            4.7968138009309769e-02 -3.8763526082038879e-01</leafValues></_>
        <_>
          <internalNodes>
            0 -1 165 -3.5630643833428621e-03</internalNodes>
          <leafValues>
            2.2444289922714233e-01 -7.2760216891765594e-02</leafValues></_>
        <_>
          <internalNodes>
            0 -1 76 5.1373345777392387e-03</internalNodes>
          <leafValues>
            -7.9820178449153900e-02 1.8275088071823120e-01</leafValues></_>
        <_>
          <internalNodes>
            0 -1 121 3.1220640521496534e-03</internalNodes>
          <leafValues>
            3.5435661673545837e-02 -4.2777523398399353e-01</leafValues></_>
        <_>
          <internalNodes>
            0 -1 677 -1.3195528648793697e-02</internalNodes>
          <leafValues>
            -4.5573106408119202e-01 3.2304786145687103e-02</leafValues></_>
        <_>
          <internalNodes>
            0 -1 289 2.4956674315035343e-03</internalNodes>
          <leafValues>
            -8.6145862936973572e-02 1.7703212797641754e-01</leafValues></_>
        <_>
          <internalNodes>
            0 -1 648 -2.1006090566515923e-02</internalNodes>
          <leafValues>
            5.1062977313995361e-01 -2.9868086799979210e-02</leafValues></_>
        <_>
          <internalNodes>
            0 -1 299 -3.5468827933073044e-02</internalNodes>
          <leafValues>
            6.8821984529495239e-01 -1.9416766241192818e-02</leafValues></_>
        <_>
          <internalNodes>
            0 -1 369 6.3987625762820244e-03</internalNodes>
          <leafValues>
            4.9660015851259232e-02 -3.3624005317687988e-01</leafValues></_>
        <_>
          <internalNodes>
            0 -1 54 8.2720601931214333e-03</internalNodes>
          <leafValues>
            4.2178053408861160e-02 -3.7174060940742493e-01</leafValues></_>
        <_>
          <internalNodes>
            0 -1 609 1.0303363204002380e-02</internalNodes>
          <leafValues>
            -4.8057645559310913e-02 3.4771424531936646e-01</leafValues></_>
        <_>
          <internalNodes>
            0 -1 611 1.0943495435640216e-03</internalNodes>
          <leafValues>
            -1.0722165554761887e-01 1.4961394667625427e-01</leafValues></_>
        <_>
          <internalNodes>
            0 -1 408 6.5130856819450855e-04</internalNodes>
          <leafValues>
            -7.9757675528526306e-02 1.7659997940063477e-01</leafValues></_>
        <_>
          <internalNodes>
            0 -1 451 7.5102813541889191e-02</internalNodes>
          <leafValues>
            4.0350221097469330e-02 -3.9448487758636475e-01</leafValues></_>
        <_>
          <internalNodes>
            0 -1 385 -1.7106549348682165e-03</internalNodes>
